2376 100
우울증 -0.44213313 0.8153389 0.112297624 -0.06582218 0.024082148 -1.0323336 0.33847648 1.3222017 -0.50576437 -0.32521477 -0.24341555 -0.8237058 -0.08361683 0.378843 0.2592799 -0.64454746 0.19543567 -0.91114515 -0.2777368 -0.9118673 0.39299107 0.31814808 0.4745881 -0.012276869 -0.2532123 0.054183308 -0.56337154 -0.35771808 -0.39421642 0.16543908 0.45996657 0.21892941 0.11299926 -0.53331 -0.37766668 0.6071389 0.052962318 -0.5661181 -0.371643 -1.2051709 0.13910492 -0.7949809 -0.5693583 -0.27154988 0.77937484 -0.2635538 -0.73588246 -0.24207476 0.46068004 0.5585757 0.20297678 -0.42449895 -0.17598926 0.08122529 -0.5761152 0.47858822 0.13861954 -0.16992046 -0.6514731 0.22429863 0.5720204 0.08375329 -0.20490992 -0.0990444 -0.73948276 0.5735421 0.18887378 0.68775576 -0.7293109 0.8446549 -0.42753837 0.38855162 0.7682829 -0.3694187 0.6104174 0.3601169 0.08863819 0.076399215 -0.60027176 -0.2863672 -0.13097617 -0.39390266 -0.43599907 0.74622315 -0.17847 0.08617611 0.1887477 0.6823038 0.8545008 0.28126144 0.5343552 0.22065279 0.024103254 0.26791364 1.347167 0.6046191 0.55469054 -0.69566226 0.5093617 -0.09714898
생각 -0.5767362 1.0201893 0.13313545 -0.03160296 0.1481737 -1.2085979 0.3533837 1.578664 -0.64479774 -0.43004534 -0.34554684 -1.103828 -0.09533211 0.47765398 0.3510983 -0.72335595 0.22656837 -1.0960412 -0.35587654 -1.0181437 0.4474686 0.39385748 0.5494032 -0.062308606 -0.29334605 0.1506082 -0.73988974 -0.42338055 -0.44386607 0.25944805 0.5657827 0.26474512 0.09585712 -0.6777991 -0.39616108 0.7916284 0.080867216 -0.65316784 -0.40983224 -1.4689592 0.10285975 -1.0836538 -0.7356702 -0.30472314 0.9649516 -0.32343173 -0.80992514 -0.29880857 0.60677093 0.657243 0.3203314 -0.52262247 -0.12253858 0.1424675 -0.71928036 0.58151335 0.24159297 -0.11162064 -0.74881643 0.24162267 0.7628293 0.13853884 -0.27445775 -0.063024856 -0.8790151 0.74961966 0.23852469 0.80471945 -0.8179974 1.0742195 -0.65498924 0.41534492 1.0011632 -0.49354476 0.6572089 0.48802695 0.04873915 0.113129064 -0.6648989 -0.36332563 -0.124204285 -0.50878674 -0.5028487 0.83548516 -0.112940185 0.10483749 0.18174511 0.85234666 1.0953134 0.34303218 0.66482604 0.26959085 -0.010428543 0.35152614 1.6607171 0.7390088 0.66923195 -0.76416695 0.58699656 -0.132691
요 -0.5129795 0.9432212 0.1063536 -0.08271634 0.09275964 -1.1327734 0.34560707 1.5017394 -0.600174 -0.374796 -0.313388 -1.000056 -0.06762668 0.4289851 0.33895525 -0.71982914 0.22666451 -1.0485104 -0.33487454 -1.0149759 0.42099676 0.3651389 0.52620065 -0.04540368 -0.28663737 0.09449195 -0.65413487 -0.41202042 -0.4338653 0.2220218 0.552742 0.2364557 0.07842143 -0.6300011 -0.42476645 0.70788693 0.054526247 -0.64410985 -0.4230536 -1.3781935 0.12553021 -0.97120523 -0.66771865 -0.2931894 0.9158165 -0.30436137 -0.8105727 -0.30374998 0.54149973 0.6374165 0.26420638 -0.4922046 -0.16472365 0.10404826 -0.68962806 0.53715664 0.17792839 -0.14779268 -0.74304813 0.22511068 0.7042338 0.094487034 -0.23112199 -0.069253474 -0.869749 0.6944711 0.23504001 0.7827401 -0.8186512 1.0057292 -0.55454034 0.43616468 0.9282689 -0.45418397 0.6537161 0.4537715 0.09759394 0.10915927 -0.6708196 -0.3180614 -0.13205816 -0.49282795 -0.5090113 0.82640487 -0.1490487 0.08097184 0.16989549 0.82054853 1.018903 0.3240625 0.6192552 0.27239436 0.028225735 0.31546056 1.5694247 0.70835817 0.65099454 -0.75658476 0.58713037 -0.13802625
약 -0.48051336 0.86382157 0.09219472 -0.12049128 -0.0024472168 -1.0713288 0.37694755 1.3984641 -0.4920516 -0.33648866 -0.25148368 -0.83270276 -0.053698905 0.36710292 0.269538 -0.69058686 0.2577672 -0.98506457 -0.29862875 -0.92223424 0.4188243 0.3043095 0.53428483 0.026512992 -0.3012427 0.0526161 -0.5663256 -0.36908922 -0.40981856 0.18260723 0.49736547 0.24779344 0.10007845 -0.54505944 -0.40822914 0.63839805 0.07448669 -0.6258423 -0.43423906 -1.2311109 0.19900988 -0.7995062 -0.5795048 -0.31282207 0.84312224 -0.2676912 -0.765474 -0.282421 0.45782334 0.59252805 0.23391365 -0.4754291 -0.2292493 0.043919165 -0.6439567 0.5092093 0.103123784 -0.15435487 -0.69806194 0.22602482 0.58011705 0.07552503 -0.19807692 -0.09472177 -0.77221185 0.5582467 0.19685516 0.7599396 -0.80335623 0.87686473 -0.4071074 0.39928162 0.82259583 -0.33578882 0.6480002 0.315813 0.0791096 0.08564024 -0.66785336 -0.28767297 -0.16420217 -0.39326388 -0.47656524 0.7951335 -0.20985237 0.05107981 0.22632176 0.744776 0.88891757 0.25440598 0.55374295 0.20486896 0.04508107 0.2609373 1.4088684 0.6225692 0.62441087 -0.7594643 0.5408198 -0.11257613
고 -0.57351995 1.0140933 0.11821055 -0.066748545 0.120336875 -1.2066302 0.37610483 1.5943501 -0.63640994 -0.4075909 -0.3529603 -1.0679821 -0.09147063 0.47448435 0.33172694 -0.76429033 0.21714114 -1.1071615 -0.33970553 -1.0385374 0.4582292 0.38907152 0.5699024 -0.02606246 -0.30778393 0.12776431 -0.7370639 -0.42300355 -0.46396908 0.23846254 0.56542164 0.2810243 0.10015119 -0.6773679 -0.4079582 0.77634925 0.05902593 -0.6740231 -0.43780276 -1.4810039 0.11052383 -1.0630496 -0.73331976 -0.3032433 0.986525 -0.3423103 -0.8479446 -0.3025988 0.6052459 0.65353125 0.31120414 -0.50950384 -0.13148068 0.11674366 -0.72297245 0.5647807 0.20821674 -0.15081578 -0.77038914 0.21990024 0.77013284 0.11850858 -0.2676461 -0.06866123 -0.90073836 0.7370928 0.24504 0.8374022 -0.8498271 1.0789409 -0.64336705 0.44590116 0.98989505 -0.49056417 0.6804295 0.4855824 0.06401126 0.12249293 -0.69152296 -0.37103385 -0.13094659 -0.51778257 -0.5177738 0.86830133 -0.13664943 0.10428213 0.20173772 0.8690404 1.0716559 0.34178182 0.674252 0.2698218 -0.00041840237 0.35259834 1.6636753 0.73088825 0.6764836 -0.7764996 0.5960465 -0.13663113
말 -0.5495871 0.97320837 0.124716006 -0.071846865 0.097271286 -1.1459997 0.36266714 1.5215907 -0.6220632 -0.41682994 -0.3346236 -1.0328085 -0.10156645 0.4249157 0.32935706 -0.7232475 0.19094677 -1.0823829 -0.34144554 -0.99241114 0.4262177 0.3810866 0.5402291 -0.037032943 -0.3041786 0.11758186 -0.6941416 -0.44180545 -0.4144586 0.2495554 0.5517202 0.23754448 0.08463691 -0.6501694 -0.40916774 0.7731862 0.07375105 -0.6417252 -0.4135981 -1.424118 0.13024336 -1.0250834 -0.6950121 -0.30426005 0.93146807 -0.32385683 -0.82064694 -0.29578632 0.5677097 0.63519454 0.28383568 -0.49659333 -0.11347929 0.13085383 -0.70591074 0.5550541 0.21169372 -0.14532755 -0.7472456 0.2068481 0.7424149 0.119799174 -0.23626414 -0.086012445 -0.86157304 0.6966721 0.2258214 0.7791906 -0.8017684 0.996345 -0.6120917 0.4333394 0.9530069 -0.46773154 0.6488331 0.45953956 0.0569917 0.12242736 -0.6500931 -0.32546097 -0.09850396 -0.5015271 -0.47251633 0.8075226 -0.12316817 0.09312368 0.15329517 0.83748585 1.027412 0.33009765 0.65567595 0.28634807 0.00073716056 0.3277633 1.5988879 0.71062607 0.6206035 -0.75122315 0.57292426 -0.14466943
병원 -0.5155565 0.96152276 0.113013916 -0.11367276 0.046585992 -1.1956909 0.39761108 1.5531464 -0.58861744 -0.38169518 -0.29905978 -0.9890435 -0.08370055 0.45256296 0.30740005 -0.7616718 0.24934925 -1.0773671 -0.3124964 -1.065042 0.4588289 0.3691715 0.57026553 -0.018741509 -0.31048727 0.08322641 -0.6776065 -0.4444527 -0.46060267 0.2031873 0.5735325 0.2812691 0.11531021 -0.6199658 -0.45796558 0.7294385 0.03484282 -0.68708885 -0.45292547 -1.4428097 0.1874462 -0.96479565 -0.66298854 -0.33478874 0.9430478 -0.2904582 -0.86639434 -0.32475114 0.5358671 0.65271807 0.2557222 -0.52281946 -0.21051604 0.09784067 -0.7086317 0.5592331 0.1493543 -0.19423929 -0.78634775 0.23324776 0.69342196 0.08592213 -0.23837665 -0.09529468 -0.88212264 0.6816013 0.22016968 0.7941928 -0.85523915 1.0033898 -0.5327385 0.45032325 0.9157671 -0.43205842 0.7123765 0.41154075 0.098491356 0.099881195 -0.7051241 -0.31882733 -0.13991888 -0.48420393 -0.53189874 0.8713383 -0.18733145 0.07878067 0.2262599 0.8198718 1.00257 0.31668782 0.6290842 0.2546386 0.018367827 0.317256 1.57686 0.70553136 0.67919177 -0.8081532 0.5970876 -0.12577182
못 -0.53585625 0.9685877 0.13403451 -0.045329574 0.10539019 -1.1592548 0.36763287 1.5153899 -0.6158065 -0.41474307 -0.33560464 -1.0321846 -0.080942646 0.44055024 0.32524157 -0.71756816 0.21486895 -1.0722474 -0.34058812 -1.0044801 0.43388146 0.38525805 0.53112704 -0.04780056 -0.30447707 0.13083827 -0.708768 -0.41519874 -0.43665144 0.2463173 0.5318595 0.26492703 0.09199872 -0.64804226 -0.410435 0.7608256 0.06393279 -0.6530102 -0.43039563 -1.4222971 0.12600136 -1.0289465 -0.6989516 -0.30066457 0.9555147 -0.3290808 -0.830122 -0.29983497 0.5867571 0.6403247 0.28207842 -0.49714512 -0.113749005 0.10860399 -0.7094905 0.57145804 0.19358262 -0.12992775 -0.74107814 0.22709295 0.7490001 0.11829737 -0.25681794 -0.061258916 -0.8614853 0.71234965 0.21064076 0.80647767 -0.80972475 1.0092739 -0.6047734 0.42794555 0.9576403 -0.47568807 0.6445524 0.46304542 0.07304748 0.104516625 -0.65904737 -0.34974843 -0.12028786 -0.48891538 -0.50276875 0.8307195 -0.12316671 0.103998445 0.18382254 0.8362322 1.0471092 0.32409236 0.64361686 0.26275003 -0.009740308 0.34656566 1.5883025 0.70716554 0.6324501 -0.7562044 0.5818957 -0.14083825
친구 -0.541224 0.95590216 0.1282956 -0.030321574 0.13672957 -1.1064149 0.35059 1.4572008 -0.6083988 -0.39683673 -0.31819072 -1.0179747 -0.067501396 0.42500514 0.33690763 -0.6899775 0.17678595 -1.0323994 -0.3436591 -0.9483792 0.41658947 0.38535824 0.5248615 -0.049743973 -0.2674749 0.12741302 -0.7001547 -0.41598356 -0.40263832 0.21648185 0.5193175 0.24107611 0.09497998 -0.616562 -0.38184398 0.7505899 0.06166808 -0.6071445 -0.38820103 -1.3937225 0.09123967 -0.98649126 -0.6734527 -0.28067085 0.9023418 -0.32450846 -0.7819073 -0.2765529 0.55710673 0.6007901 0.2889009 -0.4704739 -0.107326604 0.11310493 -0.6665052 0.53334343 0.2076201 -0.11780066 -0.6945825 0.1894823 0.71063775 0.12003302 -0.24549535 -0.069730334 -0.84334165 0.68873703 0.2119705 0.76181495 -0.77443963 0.9883373 -0.62530226 0.40434277 0.936482 -0.4601188 0.60464084 0.45258483 0.04579398 0.09523641 -0.64213896 -0.34057376 -0.09266395 -0.48865753 -0.45674253 0.7979699 -0.09869601 0.11837258 0.1489089 0.78658086 1.0060015 0.32396463 0.6209627 0.26127782 -0.0051324847 0.33156094 1.5676897 0.7012588 0.6113801 -0.6872919 0.5543959 -0.15003297
사람 -0.53982383 0.951077 0.10943053 -0.050951943 0.10891268 -1.165298 0.34458864 1.5119509 -0.6091082 -0.4091792 -0.31929958 -1.0220414 -0.09031301 0.43568024 0.32063282 -0.70433444 0.21520393 -1.0666451 -0.32419991 -0.99329257 0.42849097 0.3775756 0.5157933 -0.04572626 -0.28316998 0.11041428 -0.6940966 -0.40861684 -0.4301812 0.2181414 0.5475998 0.26313648 0.0995103 -0.6214605 -0.408367 0.7515892 0.06657388 -0.629835 -0.40683058 -1.4041693 0.12317903 -0.9939298 -0.67862517 -0.30441806 0.9248733 -0.31569666 -0.8042569 -0.2870272 0.5635688 0.64301574 0.28744158 -0.47767875 -0.13811405 0.12996064 -0.6902878 0.54288715 0.19673944 -0.13714911 -0.71685874 0.22633585 0.7243936 0.12710714 -0.23574497 -0.0803635 -0.8560086 0.6880927 0.21449357 0.7604471 -0.79567885 0.99818504 -0.5960033 0.42352462 0.93087685 -0.47938848 0.65857524 0.44758525 0.063477196 0.10716258 -0.6450605 -0.33325878 -0.106720254 -0.48660973 -0.4909773 0.8300961 -0.12029041 0.09202488 0.16697209 0.8167059 1.0293626 0.33254263 0.6171143 0.2699421 0.0058739516 0.3430652 1.5851145 0.6885866 0.6183393 -0.73967373 0.5884356 -0.12802054
치료 -0.4761716 0.8879483 0.11955945 -0.12057259 0.031803433 -1.1263779 0.35890198 1.4498632 -0.55130315 -0.36058205 -0.2730067 -0.9226156 -0.06990804 0.39980748 0.2980288 -0.70787215 0.22695953 -1.0140435 -0.28728625 -0.99284446 0.42351675 0.34023365 0.53657377 -0.02325844 -0.29990488 0.07716619 -0.61793596 -0.4113372 -0.4204557 0.1939091 0.5172668 0.2547785 0.122433715 -0.5637329 -0.41009006 0.6725475 0.045132075 -0.63150024 -0.42923424 -1.3237484 0.1698711 -0.88368213 -0.62802815 -0.29436502 0.85698634 -0.2929133 -0.8038098 -0.29136547 0.4836027 0.6133269 0.22925258 -0.48242235 -0.20306595 0.08834309 -0.6471153 0.52764475 0.12817405 -0.17100242 -0.7113462 0.2372083 0.62592185 0.07870264 -0.22559716 -0.09269835 -0.83231544 0.62541395 0.20076229 0.740439 -0.79493314 0.9355584 -0.4811739 0.42560127 0.8540898 -0.38932648 0.66681564 0.40335977 0.096892394 0.07319041 -0.6682066 -0.29259259 -0.13351232 -0.4251154 -0.48108852 0.82280993 -0.19442022 0.08479264 0.18905869 0.7744607 0.9492168 0.30585295 0.5983127 0.24240944 0.02836268 0.3046163 1.4629536 0.65835404 0.63914365 -0.762861 0.5709146 -0.12891144
증상 -0.4392182 0.83855593 0.10793556 -0.05462968 0.07092942 -1.0276263 0.31622398 1.3244884 -0.5220474 -0.3412788 -0.26545662 -0.85556114 -0.07559646 0.37728286 0.28898644 -0.6448046 0.18614295 -0.94098073 -0.28776935 -0.89932 0.37609562 0.31397414 0.46880242 -0.03882586 -0.27713674 0.07107508 -0.6028609 -0.35689184 -0.37093863 0.18496689 0.46974677 0.2131709 0.09043268 -0.54248047 -0.3576954 0.6355449 0.048693378 -0.5625128 -0.37455168 -1.2277473 0.104291655 -0.8474576 -0.5755301 -0.2469084 0.7994902 -0.27622643 -0.7067345 -0.24724248 0.48503342 0.5704716 0.24898455 -0.44493684 -0.1354736 0.10274044 -0.6178884 0.49364573 0.16648512 -0.12889618 -0.6577618 0.19233237 0.6181957 0.09871864 -0.21853453 -0.0740605 -0.7541931 0.6115197 0.19995284 0.6924328 -0.72548735 0.8669004 -0.49369684 0.38484633 0.80140364 -0.38873044 0.5832107 0.3954091 0.059848476 0.098907925 -0.59328717 -0.298555 -0.118228406 -0.39985785 -0.44405684 0.73365813 -0.12515266 0.095805235 0.15952599 0.6978151 0.895043 0.29412898 0.54667896 0.21890911 -0.009112304 0.2904978 1.3733523 0.6065081 0.553742 -0.6737915 0.5003427 -0.123848215
상담 -0.49720722 0.8973167 0.12128181 -0.12093919 0.052851614 -1.1245625 0.36678895 1.4784386 -0.5410574 -0.36258695 -0.29370895 -0.9566095 -0.08354792 0.40908965 0.28613096 -0.7326633 0.23202702 -1.0323309 -0.29501522 -0.9986916 0.4302732 0.35125643 0.54479957 -0.00056074036 -0.29074678 0.094257504 -0.6450714 -0.39975578 -0.44251078 0.2119678 0.52402645 0.26112705 0.10942463 -0.59621406 -0.43262076 0.66779876 0.029662542 -0.6558026 -0.42389145 -1.3399423 0.15688615 -0.89067256 -0.6383625 -0.31002653 0.8635794 -0.30561918 -0.79349387 -0.30950868 0.49602056 0.6185 0.2444586 -0.4929688 -0.18698402 0.078952104 -0.64540666 0.52459484 0.13310494 -0.16211621 -0.7108765 0.25018105 0.63812464 0.0713074 -0.2223225 -0.08780552 -0.84339476 0.6317107 0.23082997 0.7594888 -0.8128996 0.968005 -0.5022978 0.42624852 0.8812058 -0.4227345 0.66311324 0.3936691 0.09193811 0.080661386 -0.67412716 -0.30233076 -0.15671344 -0.4390525 -0.49554744 0.832993 -0.19029315 0.07792908 0.20447993 0.7824987 0.95308447 0.30030328 0.60100144 0.24211448 0.044081893 0.29007092 1.495365 0.6667195 0.6426633 -0.74545115 0.5730675 -0.113075145
게 -0.52985346 0.9434176 0.10836625 -0.061874177 0.10348387 -1.1306202 0.32870156 1.4523526 -0.5925273 -0.391476 -0.31744188 -0.97937894 -0.09306245 0.42652914 0.33109134 -0.6884116 0.21299875 -1.0204972 -0.32030764 -0.9643542 0.42867967 0.37235272 0.51972663 -0.03315216 -0.26990327 0.12414566 -0.6890697 -0.41285515 -0.40680975 0.2254188 0.52826816 0.2587119 0.1027927 -0.6246253 -0.37329468 0.7179439 0.051286064 -0.60935444 -0.39433634 -1.3718157 0.10151658 -0.9802332 -0.6549229 -0.28296903 0.8963476 -0.31486383 -0.79013306 -0.27873957 0.55479956 0.6128388 0.2797001 -0.4741372 -0.14679822 0.120529905 -0.67181385 0.53475976 0.20545183 -0.13026068 -0.7043013 0.22347283 0.7090214 0.12305625 -0.23986219 -0.054128505 -0.8173482 0.67739284 0.23137264 0.7635002 -0.7719867 0.9772206 -0.58607197 0.39678052 0.8957723 -0.4527109 0.64219075 0.44893256 0.059075706 0.112699166 -0.6344663 -0.3357237 -0.11109423 -0.4771181 -0.46922 0.8069428 -0.11868422 0.11101379 0.18550882 0.80191684 1.0000985 0.30934924 0.6197149 0.26184192 0.0015693948 0.32849514 1.5255741 0.6771897 0.6272627 -0.72568494 0.543795 -0.1175201
하는 -0.4978397 0.922736 0.11621753 -0.07299611 0.106744096 -1.101473 0.343283 1.435678 -0.56177056 -0.38927263 -0.29324266 -0.97645164 -0.09001529 0.40765446 0.3010805 -0.6708856 0.21193993 -1.0097554 -0.31029385 -0.943669 0.4186607 0.35995775 0.5007941 -0.03987579 -0.28492102 0.11859976 -0.6492235 -0.399764 -0.395328 0.20952247 0.49754104 0.24293567 0.09372998 -0.60784644 -0.38928765 0.69604486 0.06956948 -0.6037951 -0.39693588 -1.3276831 0.12081215 -0.9552563 -0.64018893 -0.27967355 0.8857626 -0.29070607 -0.774804 -0.2821381 0.53041893 0.60914165 0.26999187 -0.46166885 -0.12926239 0.098951094 -0.6606815 0.51432365 0.19512492 -0.12504384 -0.689186 0.21972238 0.67874056 0.10117679 -0.23255678 -0.062736936 -0.80905354 0.66904694 0.20904547 0.7410938 -0.7632221 0.95311373 -0.5704903 0.38892692 0.90178055 -0.4437637 0.6222242 0.42043644 0.07493119 0.1007535 -0.62490124 -0.31450218 -0.11911608 -0.45963132 -0.46701756 0.7729069 -0.11936926 0.09732386 0.18028207 0.7852108 0.97255814 0.30130807 0.606634 0.25107038 0.013239551 0.32589418 1.5016335 0.6581781 0.6016898 -0.7045176 0.5406021 -0.11562876
인 -0.5194016 0.9222387 0.122478366 -0.056142814 0.08580172 -1.1277289 0.34196535 1.4552276 -0.5730811 -0.3629771 -0.3125628 -0.9770497 -0.08870116 0.4319191 0.2983158 -0.70600384 0.194568 -1.004951 -0.30487835 -0.948163 0.41420603 0.36411425 0.5055828 -0.031253174 -0.2883975 0.10592116 -0.6618861 -0.38826102 -0.41332805 0.20114768 0.5065238 0.24161981 0.10297399 -0.5874627 -0.3952279 0.71385634 0.068136446 -0.6278471 -0.41640463 -1.3400745 0.12840654 -0.95309156 -0.6584671 -0.28405374 0.88891655 -0.29113585 -0.79387194 -0.28928816 0.5389321 0.5959073 0.26212886 -0.47829372 -0.1347556 0.118367724 -0.6607259 0.53641844 0.19533208 -0.14506052 -0.6917803 0.2235372 0.6857439 0.10463645 -0.2522167 -0.07500041 -0.8082139 0.65770257 0.21108447 0.76515055 -0.77790457 0.97790664 -0.57007575 0.40164194 0.9025998 -0.44202766 0.64268565 0.43256518 0.06969947 0.094259374 -0.64472735 -0.33113495 -0.13050506 -0.4574795 -0.48116165 0.8036359 -0.14725682 0.10536001 0.17095673 0.775601 0.99151915 0.3219132 0.59901893 0.2514289 -0.0008061192 0.30962664 1.4977157 0.6817404 0.6195857 -0.7087221 0.55686337 -0.11528003
부모님 -0.4565772 0.8219265 0.11370208 -0.07701079 0.07113187 -1.0135709 0.31773943 1.346259 -0.5243098 -0.34111595 -0.2829765 -0.89441234 -0.09079211 0.39327827 0.27341893 -0.626996 0.17368735 -0.94943535 -0.28732353 -0.9143033 0.40295497 0.34175166 0.4828841 -0.023827383 -0.26573142 0.10119711 -0.5928197 -0.39410636 -0.38777936 0.1962394 0.4949999 0.21846306 0.085238054 -0.56734544 -0.37120774 0.657232 0.054476123 -0.58830994 -0.39119136 -1.2590588 0.12891683 -0.8723946 -0.6080439 -0.26841244 0.8244896 -0.26987502 -0.74036384 -0.2808079 0.49575204 0.5701177 0.22168165 -0.44649777 -0.1361478 0.10621449 -0.59863913 0.49264944 0.14628646 -0.15361765 -0.67070556 0.19892697 0.62924176 0.096549414 -0.20826769 -0.06190946 -0.76019245 0.602435 0.18484776 0.6944802 -0.70381117 0.889833 -0.49175888 0.39074105 0.8103432 -0.3976109 0.58324933 0.3654942 0.08667977 0.086794995 -0.5737246 -0.2865193 -0.11040135 -0.4404242 -0.44629228 0.71909386 -0.14610471 0.082844645 0.14659101 0.7238066 0.88493115 0.2773288 0.56581014 0.24449867 0.02329953 0.2911276 1.3758476 0.63048977 0.5525269 -0.6741254 0.49133712 -0.11115836
질문 -0.46962163 0.8702793 0.109821886 -0.07927359 0.074363925 -1.0813453 0.35265946 1.3828055 -0.5433393 -0.35352382 -0.28679487 -0.9049894 -0.06422206 0.3959156 0.29569706 -0.6922473 0.20456548 -0.9790105 -0.2802008 -0.94954777 0.4150452 0.33172518 0.49227297 -0.032545123 -0.2835373 0.07695759 -0.62111264 -0.3983623 -0.40215325 0.18575464 0.5002957 0.23978232 0.09158272 -0.56895894 -0.37536448 0.6749105 0.03327743 -0.5847466 -0.3846704 -1.2839931 0.14406556 -0.88910884 -0.59467614 -0.26647732 0.835743 -0.29139724 -0.7660023 -0.27287176 0.5040189 0.5858817 0.25249213 -0.44210583 -0.14734162 0.09315965 -0.616221 0.5146218 0.16943428 -0.15096597 -0.6889433 0.21829033 0.62876546 0.08754622 -0.23494124 -0.07950274 -0.77491426 0.6205471 0.2022512 0.7150147 -0.7410296 0.89206594 -0.49803904 0.38385835 0.8333077 -0.38873208 0.6268422 0.40568897 0.08601079 0.09833065 -0.6100117 -0.28904295 -0.12902796 -0.41476077 -0.45404014 0.7695467 -0.14067459 0.1027244 0.19138175 0.73674667 0.93129826 0.29823372 0.5785388 0.23783801 0.020124994 0.2899179 1.4304439 0.649393 0.58589727 -0.71043205 0.53557384 -0.13070974
전 -0.51864314 0.94104016 0.11056642 -0.05353279 0.11262475 -1.1470073 0.35286164 1.4983956 -0.59868586 -0.39801633 -0.32783476 -0.9999113 -0.07459308 0.45274708 0.3257313 -0.7095995 0.21103281 -1.031693 -0.31224808 -0.9654995 0.43277118 0.35813975 0.514187 -0.040263608 -0.2811056 0.11087102 -0.6932554 -0.39530784 -0.4159354 0.21524532 0.53560984 0.26044986 0.09287298 -0.62429124 -0.39353588 0.7307809 0.06741467 -0.6273306 -0.4050762 -1.4024963 0.106722385 -0.9968185 -0.6690734 -0.2860591 0.90875876 -0.30827776 -0.8034164 -0.28376022 0.5702306 0.6224903 0.28064835 -0.4944465 -0.14530861 0.111277364 -0.67819947 0.55206937 0.19606297 -0.13006112 -0.71497077 0.21912733 0.7146618 0.13017622 -0.24050243 -0.05774354 -0.8484496 0.70352125 0.2250558 0.790617 -0.80241203 1.0072457 -0.57532734 0.40860197 0.9357552 -0.45349273 0.6511091 0.44114703 0.06263415 0.110270314 -0.670423 -0.34524366 -0.12701246 -0.47873226 -0.49459663 0.82645726 -0.11711566 0.10477305 0.1846192 0.8134678 1.0156667 0.31428573 0.63722813 0.24965131 0.0048436336 0.34772894 1.5623065 0.69702244 0.6386448 -0.74008054 0.567234 -0.1330332
스트레스 -0.51595795 0.931681 0.11920056 -0.053105894 0.08940561 -1.1009955 0.35908586 1.4474146 -0.5671927 -0.382441 -0.3180189 -0.9755457 -0.06516077 0.4303055 0.30881718 -0.69907004 0.21125364 -1.0224316 -0.31156737 -0.9418829 0.40893078 0.36384842 0.494377 -0.039120868 -0.2909284 0.12185005 -0.6666087 -0.40865776 -0.40580323 0.21738604 0.4992531 0.24258788 0.09438283 -0.59703434 -0.39571434 0.7179268 0.047467977 -0.6232873 -0.40906826 -1.365178 0.110014655 -0.9481803 -0.6566918 -0.27801335 0.88572013 -0.30361834 -0.78961897 -0.28730512 0.54516995 0.60387146 0.2630271 -0.47569144 -0.14517061 0.09690333 -0.6505652 0.5347063 0.19663136 -0.13016379 -0.6879714 0.21324837 0.6948569 0.096855864 -0.24948952 -0.073716044 -0.8212359 0.68500423 0.19829802 0.7443886 -0.7772808 0.9532225 -0.57608306 0.4064467 0.8971019 -0.45308128 0.6096248 0.43166423 0.07598018 0.10346395 -0.6394351 -0.323885 -0.12066147 -0.44874507 -0.46680805 0.79227775 -0.11656267 0.094963074 0.1777668 0.772177 0.9769184 0.29744777 0.6042849 0.24911523 -0.008572003 0.33412722 1.4882584 0.6596894 0.5899875 -0.6955046 0.5537997 -0.11730383
해서 -0.45083752 0.8182809 0.09715845 -0.04301704 0.08412948 -0.9797044 0.3076047 1.2897018 -0.49796382 -0.3365192 -0.27345493 -0.8608604 -0.05972818 0.38115606 0.27390927 -0.62301236 0.17533733 -0.89871466 -0.28326845 -0.8487324 0.36725026 0.3199177 0.43764952 -0.013301696 -0.25143397 0.086736046 -0.5806948 -0.3532057 -0.3779459 0.1831658 0.45352668 0.21117528 0.08215067 -0.5308141 -0.35000902 0.6303908 0.05416508 -0.54146457 -0.35704643 -1.1929857 0.1042254 -0.8467424 -0.5945869 -0.24960807 0.7835298 -0.27934596 -0.7002098 -0.24957934 0.48127407 0.5465778 0.24404046 -0.42807662 -0.121315 0.08923135 -0.5864283 0.47765318 0.16759692 -0.12279096 -0.6348791 0.18143007 0.6081093 0.104744494 -0.20762327 -0.072497204 -0.73733675 0.5977237 0.18591844 0.66735625 -0.6831524 0.84814537 -0.4892127 0.36130816 0.7835741 -0.39263305 0.55716586 0.3906332 0.059826043 0.092055455 -0.571997 -0.2840199 -0.108471714 -0.4043814 -0.4267548 0.69916826 -0.1274271 0.09930998 0.16353263 0.6922216 0.86349535 0.28429326 0.5274241 0.22707066 0.002172141 0.29569373 1.3429555 0.5919507 0.54813045 -0.6383157 0.47361997 -0.116772495
중 -0.4284258 0.78454494 0.11110873 -0.055851437 0.041361686 -0.93571246 0.30033258 1.2308383 -0.4700078 -0.29728973 -0.24632578 -0.78655404 -0.048708268 0.34863403 0.24373716 -0.60221535 0.19294804 -0.8619833 -0.26546764 -0.79818445 0.35266984 0.28538665 0.4335317 -0.010147582 -0.24467303 0.087156646 -0.5478928 -0.32567108 -0.34489638 0.1789219 0.43569735 0.20716313 0.09465792 -0.5083745 -0.33390567 0.57355493 0.04951139 -0.5401093 -0.35775733 -1.1342187 0.11588306 -0.76976985 -0.53116775 -0.2553944 0.7339541 -0.25594056 -0.6652103 -0.24233723 0.42655012 0.5126455 0.22883634 -0.3970035 -0.15572417 0.080567285 -0.5623614 0.4303124 0.13718893 -0.12557095 -0.60975343 0.18096763 0.5536232 0.09379946 -0.21026352 -0.054002006 -0.68668526 0.5466769 0.19143413 0.6478209 -0.6771524 0.8108746 -0.43550107 0.35193014 0.7484514 -0.3572095 0.5485683 0.32923865 0.06432834 0.08526738 -0.54996383 -0.25938302 -0.121643454 -0.37983498 -0.40043008 0.68105453 -0.14692977 0.073690586 0.16456445 0.65340024 0.8034375 0.25793645 0.51679873 0.18845306 0.014369605 0.2548947 1.2475046 0.5598145 0.5145712 -0.6108842 0.45821077 -0.095771365
잠 -0.5184015 0.93389463 0.11846642 -0.021958027 0.10303608 -1.1217484 0.34418035 1.4559636 -0.58999 -0.39745623 -0.3363825 -0.9954593 -0.06118913 0.43563458 0.31916392 -0.6773204 0.19846903 -1.016961 -0.30686417 -0.9552465 0.41315043 0.3657271 0.4782683 -0.012889338 -0.27927688 0.11849982 -0.6888837 -0.3782784 -0.3929455 0.21435429 0.51083404 0.2664398 0.07633217 -0.6186604 -0.37468037 0.73120886 0.09774232 -0.63455 -0.41608196 -1.3532788 0.10084811 -0.99555475 -0.68876916 -0.29855597 0.9053301 -0.31252775 -0.786078 -0.26371744 0.5573629 0.6105972 0.30711123 -0.48535475 -0.12960249 0.12190967 -0.6695863 0.555133 0.20541824 -0.13153902 -0.7074606 0.20817497 0.6883445 0.11457713 -0.23523444 -0.050973654 -0.8262325 0.6888066 0.18962087 0.7804018 -0.8100877 0.9925034 -0.5805125 0.41727772 0.9180395 -0.46269307 0.602462 0.4555785 0.046512756 0.09713849 -0.64663744 -0.33229846 -0.12531492 -0.45810565 -0.47097215 0.79691315 -0.1325112 0.12415919 0.19452125 0.80299187 1.0281395 0.33042276 0.6204817 0.24950099 -0.020581475 0.3434719 1.5432155 0.6816677 0.62247956 -0.7343328 0.56207216 -0.12866692
해야 -0.47928068 0.84597665 0.11172856 -0.086491555 0.06263915 -1.0496793 0.30333292 1.3734819 -0.52877414 -0.3559103 -0.28761974 -0.89769477 -0.076230235 0.3929139 0.31407216 -0.6310264 0.21538115 -0.9807265 -0.28214306 -0.92393225 0.40453273 0.34318903 0.48844162 -0.048280496 -0.28399578 0.10749019 -0.61503685 -0.3854755 -0.369625 0.20170036 0.5232717 0.22115475 0.06230444 -0.5841043 -0.3801767 0.6372589 0.06240018 -0.58611065 -0.3977229 -1.2530496 0.14242864 -0.87336856 -0.58786535 -0.29373303 0.8279996 -0.29189095 -0.7390923 -0.27160436 0.48978776 0.58379775 0.24101351 -0.43648282 -0.12973535 0.11943046 -0.62935185 0.506793 0.17344552 -0.113987796 -0.65406346 0.20289063 0.6267687 0.08795171 -0.22234634 -0.044911217 -0.775479 0.62561446 0.21054178 0.682184 -0.7193098 0.9189261 -0.51745814 0.3888252 0.8203629 -0.42333475 0.6123807 0.39029476 0.08739259 0.104630224 -0.6040384 -0.28292876 -0.121848285 -0.44107926 -0.4453949 0.7547308 -0.13399395 0.08277807 0.14495523 0.7701531 0.9004916 0.30779305 0.5700489 0.23104677 0.0053361445 0.27657562 1.4073876 0.65790564 0.5982658 -0.6865585 0.52611816 -0.105114326
없고 -0.5480956 0.95523626 0.12712173 -0.05939783 0.10813226 -1.1574023 0.34175295 1.5006981 -0.6143588 -0.42396793 -0.32397678 -1.0126317 -0.07810622 0.43891943 0.3133572 -0.69299585 0.21438429 -1.0132277 -0.35062402 -0.9707963 0.39599326 0.3679552 0.48052755 -0.032366168 -0.29271346 0.11331173 -0.6758045 -0.42268062 -0.4137663 0.21392915 0.54549223 0.27551627 0.089880906 -0.6198084 -0.37787044 0.7265793 0.08405978 -0.63837516 -0.38576043 -1.386628 0.077766165 -1.0107416 -0.6588652 -0.30451608 0.93709576 -0.3217373 -0.7573764 -0.2793246 0.5763245 0.61863667 0.30650398 -0.4641028 -0.11664337 0.12756048 -0.67264944 0.55213 0.22747013 -0.102142744 -0.6906912 0.22442017 0.7373537 0.12641485 -0.2501845 -0.05515605 -0.8440806 0.69825053 0.19088285 0.75202 -0.7917937 1.0247626 -0.6054136 0.39758086 0.9481773 -0.47090232 0.6394087 0.4652017 0.060707036 0.115512684 -0.63846785 -0.33853388 -0.10074087 -0.48060566 -0.49395955 0.8159387 -0.08806822 0.10972498 0.16980702 0.8170971 1.028614 0.34351307 0.62003624 0.2438121 -0.0155596165 0.3505498 1.5668226 0.6777304 0.6329152 -0.73458576 0.57310367 -0.15164411
상태 -0.4555886 0.8633203 0.10703748 -0.07224517 0.07605438 -1.0438417 0.3167558 1.3640621 -0.5219129 -0.33669958 -0.29372025 -0.8871662 -0.06870111 0.3916799 0.26774457 -0.6478124 0.2043282 -0.93561804 -0.290302 -0.9020766 0.3832461 0.32832205 0.46781853 -0.03331983 -0.26823962 0.10012982 -0.6203845 -0.3748651 -0.39138767 0.19893596 0.48526302 0.23553084 0.08591337 -0.56214595 -0.36832097 0.65844613 0.06174514 -0.5898168 -0.37676162 -1.2757808 0.11700774 -0.8822621 -0.6007535 -0.2810927 0.81901103 -0.28898957 -0.73410547 -0.27247456 0.48619628 0.5657722 0.24365573 -0.4508649 -0.16016138 0.094189934 -0.60743755 0.48623797 0.15025905 -0.1402469 -0.6722385 0.20385106 0.6373046 0.09067548 -0.22567336 -0.06209069 -0.7536526 0.62371904 0.20991358 0.69377565 -0.75096613 0.89737004 -0.51940423 0.36911428 0.8229074 -0.41008022 0.5915481 0.3873877 0.056487735 0.09545674 -0.6047866 -0.28920555 -0.108885534 -0.41618645 -0.45356497 0.7541829 -0.14375357 0.09462175 0.1849209 0.7461141 0.9118515 0.29402092 0.5487767 0.22362243 0.017437188 0.29544944 1.4058815 0.6191535 0.5677701 -0.6718068 0.51361847 -0.11266707
집 -0.54520434 0.95535713 0.1096489 -0.043398425 0.123661384 -1.1377572 0.36548945 1.5001965 -0.6124081 -0.38651294 -0.3343601 -1.0090358 -0.072067015 0.43417206 0.31951222 -0.720278 0.21407747 -1.0681854 -0.3243435 -0.98759997 0.43808544 0.36925295 0.532205 -0.04922176 -0.3016367 0.105129115 -0.7006215 -0.4016359 -0.42378962 0.2376114 0.5301027 0.2618147 0.092189364 -0.61903065 -0.40008467 0.7506206 0.048964366 -0.6351887 -0.41361243 -1.3993073 0.11563048 -1.0023617 -0.68547904 -0.29715148 0.92465454 -0.32548153 -0.79932976 -0.29661697 0.5778841 0.6267227 0.2934832 -0.4811039 -0.12500611 0.11674019 -0.690167 0.5535021 0.20511031 -0.13295433 -0.73806965 0.20111266 0.72468156 0.108542256 -0.25707847 -0.073854074 -0.8573322 0.6977663 0.22794269 0.77792317 -0.80331993 1.0048134 -0.6012454 0.40994418 0.93320245 -0.47230688 0.6327275 0.44100466 0.07129924 0.10991186 -0.65838414 -0.32869446 -0.10723813 -0.47086215 -0.49273905 0.8319936 -0.12753035 0.09715277 0.16313887 0.8274425 1.0240318 0.32438236 0.6447601 0.25767198 -0.0063515976 0.32568577 1.5605302 0.69170487 0.6349428 -0.7332764 0.5702377 -0.13616115
하루 -0.5273033 0.96188897 0.10808145 -0.045738187 0.1226131 -1.1369816 0.3619261 1.486508 -0.5799604 -0.3804794 -0.31632757 -1.0345745 -0.06446337 0.44433987 0.31256965 -0.7212981 0.22540233 -1.0709598 -0.33046558 -0.9606358 0.4087075 0.3920008 0.5103768 -0.022694467 -0.29938728 0.10680993 -0.7161683 -0.39736718 -0.41589937 0.21915984 0.5394001 0.24910825 0.073027425 -0.63583994 -0.401082 0.71510464 0.06989786 -0.63514876 -0.40086466 -1.4105598 0.07701194 -1.0119846 -0.7066445 -0.3073745 0.91705453 -0.310367 -0.81535846 -0.27328524 0.574063 0.63862455 0.29244822 -0.5013509 -0.116785474 0.10217035 -0.66677135 0.5521138 0.22665943 -0.1249443 -0.7299727 0.2251544 0.7056299 0.10226953 -0.25199053 -0.05645094 -0.8591163 0.7012352 0.19490565 0.7941041 -0.8073192 1.0036168 -0.5919126 0.42623693 0.9552424 -0.481918 0.6116555 0.4378012 0.050784383 0.0929448 -0.6613319 -0.3575769 -0.12493536 -0.4793609 -0.48987707 0.82027227 -0.110846035 0.096260324 0.1736013 0.8191827 1.0485864 0.3302764 0.6397971 0.25778255 -0.010976745 0.33424073 1.5856336 0.7238751 0.6467796 -0.7334564 0.55417186 -0.15011235
정신과 -0.38650122 0.7322905 0.072169274 -0.08886344 0.015521061 -0.9157733 0.3148286 1.1905022 -0.43992823 -0.2802344 -0.23457026 -0.75487185 -0.055048976 0.34417248 0.22344336 -0.57480395 0.20103331 -0.83989066 -0.23699576 -0.8184197 0.36388063 0.27829796 0.4511405 0.0057357526 -0.23187712 0.045087766 -0.50435275 -0.3327282 -0.35750106 0.15897933 0.4502258 0.2153377 0.101075776 -0.48495892 -0.355729 0.5419935 0.0347482 -0.52018476 -0.35453057 -1.0839809 0.13966338 -0.7015704 -0.5004217 -0.26267013 0.7140288 -0.22573814 -0.6649575 -0.25068966 0.40496185 0.5155811 0.17398363 -0.394406 -0.17542435 0.06649554 -0.524949 0.42569578 0.10144355 -0.14182587 -0.59777105 0.20498145 0.52260375 0.05150963 -0.18602534 -0.07667614 -0.68568766 0.49631876 0.16386534 0.61074835 -0.64839107 0.7798932 -0.38592184 0.33048782 0.7111942 -0.31625822 0.5514146 0.2965246 0.07387267 0.070516594 -0.5526776 -0.23855431 -0.12520745 -0.36438543 -0.41509762 0.67752284 -0.16943744 0.055865303 0.17872909 0.63825756 0.76688635 0.23889548 0.4793105 0.20212117 0.024579206 0.22847086 1.1943324 0.53274024 0.5086208 -0.6347209 0.46872443 -0.08488554
눈물 -0.46461895 0.79863524 0.08275619 -0.034526747 0.13278778 -0.95176136 0.26494932 1.2700188 -0.52313477 -0.334605 -0.28734085 -0.891825 -0.051940452 0.39955464 0.28866193 -0.6011924 0.19010204 -0.9194967 -0.2898611 -0.83211446 0.35374135 0.3303489 0.4306877 -0.04204706 -0.22408979 0.11643774 -0.5997241 -0.32588297 -0.353108 0.19513261 0.4500203 0.23462883 0.058985878 -0.54953194 -0.2984702 0.6191891 0.054256752 -0.5600784 -0.3360275 -1.1829975 0.03592425 -0.8781481 -0.58696675 -0.24261086 0.7953377 -0.2668517 -0.6741413 -0.20755213 0.48961544 0.5325513 0.2665363 -0.40515536 -0.10203011 0.124374785 -0.56486726 0.44642466 0.20713921 -0.07829901 -0.59314555 0.1771536 0.6169293 0.10027239 -0.21332116 -0.025475187 -0.7254402 0.6031894 0.17220786 0.6596096 -0.6786117 0.8675518 -0.5252667 0.35421574 0.8047957 -0.41737345 0.5027615 0.3837543 0.054329693 0.08987631 -0.54247445 -0.28615752 -0.11623854 -0.41468143 -0.4263188 0.6852643 -0.08970881 0.108637206 0.1483977 0.71726286 0.8976334 0.2977927 0.5445407 0.23553675 -0.015203642 0.32488245 1.3464317 0.6152742 0.53942436 -0.61895543 0.46518523 -0.12377982
진짜 -0.46271402 0.8351131 0.10838786 -0.040461916 0.08460433 -1.0010904 0.31446552 1.3100662 -0.51526254 -0.34538049 -0.28308925 -0.8906013 -0.070302926 0.3691916 0.27968633 -0.63062084 0.17813197 -0.93484116 -0.2791398 -0.87258875 0.38576037 0.3160385 0.45085415 -0.030186545 -0.2600729 0.10390051 -0.6022619 -0.3673373 -0.37093428 0.18670009 0.4750347 0.21814296 0.08644245 -0.55880463 -0.34530115 0.6370543 0.0659843 -0.54822856 -0.36733124 -1.2040759 0.09625381 -0.87988615 -0.5837362 -0.25410342 0.79122293 -0.28478688 -0.6953954 -0.2516905 0.49277326 0.5504024 0.24138731 -0.42058355 -0.116099164 0.116493165 -0.6067184 0.4857994 0.18230866 -0.12561269 -0.64649934 0.20191787 0.63928133 0.09593569 -0.20719899 -0.058056723 -0.74694765 0.60340154 0.1838274 0.680274 -0.69442964 0.8609252 -0.5183445 0.36602086 0.8161686 -0.40869546 0.5763127 0.39892122 0.055306073 0.105270125 -0.56675607 -0.29234818 -0.10496522 -0.42139423 -0.43330604 0.71645916 -0.12404363 0.08477566 0.15393673 0.71426105 0.90313673 0.2826143 0.54712385 0.23487556 0.00773836 0.2901176 1.3778899 0.61561704 0.5357134 -0.65237254 0.4869197 -0.12256099
학교 -0.4616145 0.80911857 0.11137198 -0.04243826 0.102204844 -0.98949724 0.28526685 1.273889 -0.50558835 -0.35411248 -0.2788524 -0.88472253 -0.051134773 0.38629386 0.2817302 -0.62469 0.18186367 -0.9118447 -0.27856675 -0.8414784 0.36319625 0.32973635 0.45180735 -0.03821843 -0.23448384 0.106274694 -0.61068887 -0.34194517 -0.3646541 0.20637882 0.4523943 0.23588862 0.08224777 -0.55121034 -0.34873998 0.65679705 0.054191004 -0.55812526 -0.35476774 -1.2037349 0.084202014 -0.88102335 -0.5828995 -0.25435427 0.8019762 -0.2732801 -0.6917311 -0.24318019 0.495015 0.52694225 0.26537102 -0.40522012 -0.09127223 0.09653827 -0.5972971 0.47760278 0.16475813 -0.09347754 -0.6190698 0.18823959 0.63631624 0.099943794 -0.22242816 -0.05281138 -0.7197709 0.59707344 0.1833891 0.66675967 -0.678575 0.87725264 -0.53034633 0.3627038 0.79870814 -0.40393457 0.5560028 0.40137154 0.045652095 0.08395807 -0.5518497 -0.28549647 -0.088562086 -0.42067337 -0.42996907 0.70165825 -0.104462765 0.10151977 0.13231054 0.6993247 0.9047419 0.29782504 0.5586734 0.22740825 -0.019005718 0.2886559 1.360133 0.58984673 0.537203 -0.62941414 0.4800387 -0.13833575
아무 -0.4664025 0.8335002 0.07642623 -0.040519975 0.13070005 -0.9991986 0.27145314 1.3333038 -0.52335256 -0.36531204 -0.2710159 -0.9115342 -0.0756244 0.39515695 0.30347553 -0.60698617 0.18863884 -0.93893987 -0.2920496 -0.86326635 0.35636708 0.3328402 0.44756687 -0.0491567 -0.23875238 0.11321016 -0.61592925 -0.3525712 -0.3672816 0.21664524 0.47671026 0.22281876 0.08960985 -0.5816452 -0.3214833 0.6440728 0.040971823 -0.57361186 -0.35105222 -1.2448081 0.058513485 -0.9248233 -0.61603034 -0.27036858 0.8277864 -0.29056334 -0.66674817 -0.24108347 0.5045111 0.575284 0.26271912 -0.43271437 -0.09388721 0.1263042 -0.5787248 0.4715831 0.19901907 -0.08300031 -0.6241314 0.20118845 0.63548803 0.11319272 -0.22784892 -0.03554654 -0.7518126 0.6309454 0.19344103 0.69210947 -0.7038604 0.89877677 -0.53905475 0.35153916 0.8542758 -0.4352884 0.54037637 0.3947983 0.047509212 0.09259811 -0.56326866 -0.30958927 -0.098108925 -0.44008467 -0.4403788 0.71586394 -0.07520593 0.100750834 0.14708307 0.7312613 0.9185851 0.30967858 0.54447836 0.22287351 -0.013526611 0.31925902 1.392644 0.62730086 0.57041454 -0.627997 0.5095653 -0.13589098
인지 -0.40242252 0.7342978 0.08170472 -0.049983114 0.056771033 -0.9214734 0.28677973 1.1823795 -0.46262243 -0.316921 -0.24550614 -0.7570192 -0.08441925 0.3526006 0.24492006 -0.56414115 0.16585974 -0.8362955 -0.24583882 -0.78159636 0.3318842 0.2854928 0.41626224 -0.02554993 -0.2245773 0.072763465 -0.5179163 -0.34218478 -0.3284853 0.17037508 0.42843437 0.18607372 0.08210994 -0.491187 -0.31426296 0.5715178 0.039131165 -0.48914424 -0.315965 -1.0894278 0.09054103 -0.7588818 -0.5109298 -0.22452733 0.7161319 -0.23644747 -0.64265263 -0.2156065 0.42010155 0.4941612 0.2141798 -0.37109432 -0.1360733 0.08197625 -0.5308381 0.4392967 0.14059792 -0.13217174 -0.5749584 0.1712291 0.5347115 0.077801615 -0.19193009 -0.057138704 -0.65593445 0.53588194 0.16892911 0.59662807 -0.6257029 0.7569821 -0.4306473 0.3243151 0.6932499 -0.34207615 0.5325319 0.3337171 0.052548755 0.077811144 -0.50328743 -0.2523471 -0.08844817 -0.37135077 -0.37784195 0.63205403 -0.101083815 0.089063995 0.15741518 0.61273783 0.79806954 0.26305166 0.46812147 0.1885823 0.019164588 0.2498175 1.196507 0.5473156 0.4822028 -0.59764457 0.45901644 -0.10034026
면 -0.508162 0.90500844 0.10792182 -0.075101964 0.086270615 -1.1070818 0.32733548 1.4520706 -0.55705154 -0.3785922 -0.30387118 -0.965567 -0.064997226 0.42683247 0.30549136 -0.6874072 0.19785349 -0.99961317 -0.31006423 -0.94507736 0.41902313 0.358642 0.4932869 -0.027130662 -0.28463948 0.09898927 -0.63946664 -0.41070023 -0.40897623 0.20724927 0.50337917 0.24012226 0.09309569 -0.60249674 -0.3960774 0.7015309 0.04997927 -0.6235562 -0.39775681 -1.3317916 0.12624745 -0.9416532 -0.63281655 -0.30182904 0.8806712 -0.29020336 -0.7679577 -0.2799016 0.5299669 0.60201067 0.25189656 -0.47236797 -0.135421 0.10791063 -0.6414078 0.51739055 0.19089639 -0.12739666 -0.6823917 0.19853733 0.68347615 0.1033553 -0.23564905 -0.06378596 -0.8192524 0.67072105 0.2068497 0.7371877 -0.77179515 0.95849156 -0.54049003 0.3985121 0.88919866 -0.4396069 0.6306035 0.4390134 0.0703203 0.100981474 -0.64084923 -0.2990121 -0.12140764 -0.4540001 -0.4718506 0.7941657 -0.120856754 0.09850948 0.17645307 0.79040205 0.96616304 0.31640714 0.59605813 0.24454167 0.010563079 0.3104409 1.4838431 0.67856675 0.5910976 -0.7202329 0.53903365 -0.119141296
갑자기 -0.4490268 0.81440145 0.09690381 -0.0345492 0.105532214 -0.9683037 0.28302577 1.2737081 -0.50915474 -0.34056118 -0.2700333 -0.87242764 -0.063700706 0.38946816 0.2783591 -0.59996 0.17056604 -0.90186095 -0.2771746 -0.81206894 0.3673054 0.3334443 0.43890175 -0.049080208 -0.2429893 0.09730838 -0.5858081 -0.33247873 -0.35739827 0.18827398 0.46293533 0.22478592 0.07637155 -0.55055994 -0.30403107 0.6169439 0.04524574 -0.5547248 -0.35597414 -1.2004366 0.048477672 -0.8643099 -0.5937256 -0.24934086 0.7938006 -0.26032498 -0.6663563 -0.23177299 0.4962526 0.5346346 0.2628707 -0.39221776 -0.111371316 0.1001607 -0.5511224 0.4595242 0.18397218 -0.091157675 -0.60955316 0.16798909 0.6025127 0.11803413 -0.23069306 -0.056106538 -0.72894275 0.6110119 0.17282006 0.649679 -0.67195463 0.85291135 -0.5241297 0.34229234 0.8144103 -0.40451846 0.51877385 0.39454895 0.060924627 0.07274551 -0.5614386 -0.28130105 -0.113091454 -0.41292566 -0.4292791 0.69369817 -0.093982436 0.091290064 0.14615673 0.70249987 0.8966981 0.3003 0.541899 0.22093666 -0.0055742837 0.3089311 1.3366244 0.60627097 0.5337461 -0.6028497 0.47446582 -0.1346475
감정 -0.46843952 0.86768675 0.0873784 -0.04193608 0.111865155 -0.9940134 0.30605802 1.3172643 -0.5228137 -0.34037638 -0.28079912 -0.92567194 -0.0669013 0.39349854 0.28413716 -0.6110697 0.18304712 -0.9173277 -0.2920066 -0.8453085 0.36913607 0.3227606 0.43582806 -0.03985223 -0.26247025 0.12326666 -0.6159301 -0.36733142 -0.3634481 0.19176772 0.45918792 0.22666691 0.091456085 -0.5699762 -0.33641976 0.662948 0.07092898 -0.5422877 -0.371124 -1.2395957 0.058136158 -0.8952296 -0.5991649 -0.26188636 0.82197565 -0.2867919 -0.68268126 -0.23871599 0.51213527 0.5621309 0.2645805 -0.4129047 -0.11491785 0.104956955 -0.5893526 0.460156 0.19380838 -0.09919441 -0.6133891 0.17299278 0.6405108 0.10452801 -0.24320838 -0.04193338 -0.730762 0.6215341 0.19052522 0.688334 -0.6943675 0.88206637 -0.5400154 0.35209066 0.83166313 -0.40605733 0.5555661 0.40827817 0.05611354 0.0916092 -0.55385894 -0.29136065 -0.10735174 -0.436113 -0.4320573 0.69391036 -0.0840548 0.08600003 0.15272512 0.7312458 0.92080486 0.29630697 0.5403741 0.22830983 -0.009759397 0.3123569 1.4010621 0.6266372 0.55924684 -0.6175234 0.49322003 -0.12412402
공부 -0.47417608 0.83081657 0.11719872 -0.051218 0.09571127 -1.0026641 0.31620106 1.3120914 -0.5237901 -0.3553736 -0.29426238 -0.8951069 -0.071072824 0.38352463 0.2802364 -0.61292857 0.1857424 -0.91217434 -0.2883986 -0.85851306 0.35756066 0.3336948 0.46782124 -0.03552477 -0.24087042 0.13177307 -0.61868024 -0.36059198 -0.39007318 0.20690687 0.4519304 0.22687398 0.08968875 -0.5591986 -0.35880083 0.65795875 0.044523824 -0.57874274 -0.3745118 -1.2238511 0.079271264 -0.8865438 -0.6020985 -0.2443097 0.82077557 -0.28921425 -0.679031 -0.26389256 0.50109464 0.55276334 0.25688773 -0.43202344 -0.1063645 0.10381146 -0.60918456 0.46661052 0.17731988 -0.097480275 -0.6301324 0.18206519 0.64919543 0.10649449 -0.22132815 -0.04631804 -0.75131565 0.6349097 0.17849131 0.6762486 -0.7039575 0.8906407 -0.5453257 0.37825826 0.8358924 -0.42927283 0.56262356 0.41985205 0.041378647 0.09822741 -0.5809878 -0.2814569 -0.0928831 -0.42023757 -0.43946508 0.7121535 -0.0984299 0.09192165 0.16696604 0.7102277 0.88234395 0.27969158 0.54532075 0.23138797 -0.006523841 0.30030698 1.3853657 0.60619307 0.55428684 -0.63546723 0.48759553 -0.12073453
마음 -0.5560931 0.9646835 0.11939755 -0.05249227 0.11052432 -1.1623445 0.35699973 1.5309591 -0.60294366 -0.40161666 -0.32955906 -1.0402522 -0.091455035 0.45501995 0.3163394 -0.7395622 0.20442645 -1.0692173 -0.333609 -0.9920141 0.4542353 0.37462562 0.5421847 -0.03867132 -0.29249424 0.11868894 -0.6879907 -0.42911735 -0.42791316 0.2390582 0.5483491 0.26932126 0.105453 -0.63996345 -0.39391214 0.7590513 0.0598525 -0.6449868 -0.41739964 -1.434304 0.113388486 -1.0178634 -0.6860603 -0.31093252 0.93675417 -0.32154647 -0.8132673 -0.3030333 0.58071023 0.6385242 0.2957945 -0.49229434 -0.12961172 0.112791985 -0.6998029 0.55878127 0.1980711 -0.1275659 -0.74545276 0.22837307 0.73205405 0.118089475 -0.25443545 -0.07530841 -0.87298226 0.69655013 0.22741975 0.79956156 -0.8223127 1.0382159 -0.6036635 0.41498393 0.9560951 -0.46702576 0.6523567 0.46000826 0.07265058 0.11652371 -0.6624998 -0.33833846 -0.12146019 -0.49701202 -0.49351695 0.82537234 -0.13149771 0.10008005 0.19173637 0.82546777 1.050692 0.33683464 0.638073 0.2539907 -0.00572209 0.34701598 1.5868552 0.7209251 0.6362379 -0.76854926 0.57450485 -0.12524505
기분 -0.5751222 1.0293157 0.10910924 -0.06825538 0.12222595 -1.2214457 0.3594692 1.5920684 -0.6472089 -0.4202118 -0.32985747 -1.1053526 -0.08786745 0.47292596 0.34679818 -0.773483 0.2358534 -1.1342971 -0.34013963 -1.0204134 0.4595795 0.40992722 0.55765396 -0.038549468 -0.31771916 0.13291995 -0.7502086 -0.44383392 -0.4373039 0.2220225 0.56427574 0.27370206 0.10475773 -0.6637655 -0.40318933 0.7907259 0.063964315 -0.6768569 -0.4458505 -1.5004314 0.089467846 -1.0796418 -0.72347224 -0.31161705 0.9783139 -0.329797 -0.83932614 -0.2998263 0.5985687 0.67149615 0.30799907 -0.5004731 -0.12944193 0.14326465 -0.71030366 0.57357585 0.22351718 -0.14305378 -0.7679585 0.21991445 0.76918256 0.13167617 -0.29073754 -0.056232464 -0.8994087 0.747666 0.21987268 0.8209426 -0.85439146 1.0865473 -0.6407324 0.42980435 1.0120959 -0.50004905 0.6714921 0.49091622 0.06756952 0.11527455 -0.70336074 -0.3754701 -0.13107224 -0.5168513 -0.529652 0.86716723 -0.11910277 0.12202923 0.18658948 0.8770703 1.09848 0.35123327 0.66348666 0.2641467 -0.015467808 0.36717936 1.6705503 0.7569988 0.6614728 -0.7741612 0.6043511 -0.1537289
받고 -0.42091382 0.74364895 0.0780937 -0.09468268 0.03838759 -0.9351145 0.29538327 1.1961387 -0.44206744 -0.29700023 -0.25220162 -0.77081734 -0.06832973 0.3429872 0.24131626 -0.5951044 0.1794664 -0.85282475 -0.23903376 -0.788328 0.3575804 0.28452504 0.4463335 -0.014324746 -0.2265478 0.07609839 -0.5095347 -0.31891698 -0.36599997 0.16287266 0.44414967 0.21054938 0.0791442 -0.48309785 -0.34042537 0.5529572 0.03929157 -0.5135252 -0.34711853 -1.0879244 0.12370341 -0.72802 -0.52855337 -0.263792 0.71622646 -0.24925661 -0.66333914 -0.23973185 0.41972506 0.50654995 0.20909005 -0.39872816 -0.14833343 0.06992673 -0.52322054 0.44193885 0.11366695 -0.12611651 -0.5949426 0.18625666 0.5257742 0.071398474 -0.20024654 -0.080886036 -0.6784888 0.5240208 0.16040337 0.62821114 -0.64735997 0.78550017 -0.41780815 0.3487568 0.7344989 -0.3335944 0.53634304 0.308558 0.06169381 0.07363439 -0.5358836 -0.24901375 -0.1291371 -0.3528945 -0.4105525 0.6771437 -0.13303874 0.05642173 0.16779241 0.6514436 0.77960896 0.23935053 0.50259316 0.19598727 0.03754571 0.2370113 1.2138675 0.5512505 0.5105038 -0.61682266 0.45177218 -0.10552825
문제 -0.5365571 0.9498629 0.11425062 -0.078989215 0.09800818 -1.1394223 0.35411078 1.4860772 -0.57576394 -0.38874862 -0.31365785 -0.9883166 -0.06560086 0.4377427 0.3148743 -0.7244483 0.22016612 -1.0425932 -0.32747447 -0.97537684 0.42348608 0.36406937 0.51259756 -0.034887016 -0.27713314 0.10235892 -0.66047436 -0.4063616 -0.43459716 0.21017538 0.5239601 0.2654194 0.087543 -0.6214871 -0.4104751 0.72761226 0.060087483 -0.63304776 -0.42428517 -1.3924145 0.12370248 -0.9664714 -0.6595659 -0.3108689 0.900221 -0.31374878 -0.8004719 -0.2920012 0.5419066 0.62970537 0.28099617 -0.48108605 -0.1595986 0.10685846 -0.6828335 0.5286662 0.19504318 -0.14162335 -0.7306519 0.22972693 0.7068958 0.109805055 -0.24890757 -0.07856399 -0.84425795 0.6621723 0.20444225 0.7649385 -0.80781126 1.0010253 -0.55131894 0.4130753 0.92143077 -0.44020906 0.6528891 0.4210401 0.07906253 0.09909904 -0.6667854 -0.32850182 -0.11199174 -0.45609578 -0.50526553 0.8075762 -0.14151318 0.091181874 0.16959952 0.81640095 0.9950035 0.32314467 0.63270426 0.25395876 0.017557386 0.3242097 1.5263486 0.6939602 0.62673944 -0.751203 0.58015805 -0.13736284
우울 -0.44508547 0.8116751 0.08230757 -0.07502806 0.10757045 -1.0314152 0.3274073 1.307907 -0.48992923 -0.32684153 -0.26365522 -0.85702306 -0.08855669 0.35826665 0.2601624 -0.6444139 0.19355309 -0.921373 -0.27511215 -0.8496811 0.3634299 0.3145025 0.46253172 -0.053627476 -0.25691476 0.08566595 -0.5842402 -0.3708575 -0.36629382 0.16223836 0.4855607 0.21185875 0.10559642 -0.5263756 -0.3185106 0.626434 0.038572554 -0.56586194 -0.34302163 -1.2373824 0.11039832 -0.86285335 -0.5660209 -0.27649528 0.80598223 -0.2671705 -0.73609614 -0.21005541 0.4833285 0.5684693 0.25165755 -0.4155852 -0.12294783 0.13877727 -0.61047465 0.5113865 0.19331808 -0.12691125 -0.62461066 0.19923599 0.63635045 0.09356127 -0.22457716 -0.05777182 -0.71490574 0.6269706 0.16398467 0.66566145 -0.7228532 0.86122215 -0.5308576 0.3668965 0.80763566 -0.40487352 0.58303994 0.3663492 0.06469144 0.08169868 -0.5869732 -0.31314212 -0.12778042 -0.39231327 -0.44543004 0.7366667 -0.1286804 0.09395877 0.1663816 0.6895508 0.87687904 0.26804778 0.5094303 0.20519824 -0.0066738464 0.30801716 1.3595976 0.6024487 0.54463595 -0.6589749 0.49585727 -0.12840587
없이 -0.46290407 0.80923325 0.07156731 -0.05250189 0.12376323 -0.9942592 0.27610058 1.315232 -0.5037726 -0.36069834 -0.26659006 -0.92550826 -0.062246777 0.414186 0.2812904 -0.59090376 0.18428144 -0.92546487 -0.27727517 -0.87502915 0.3567008 0.32376295 0.44812998 -0.05194844 -0.24782644 0.098438285 -0.6122389 -0.3523458 -0.35227358 0.18291445 0.46769443 0.24336949 0.092443794 -0.5706947 -0.3200907 0.6244397 0.05189363 -0.5834364 -0.36675987 -1.2249401 0.055029843 -0.8873628 -0.632642 -0.25077048 0.8255164 -0.28813967 -0.6867462 -0.22090799 0.49227664 0.5587915 0.2756053 -0.413337 -0.09564051 0.13371797 -0.5652518 0.47747493 0.21021058 -0.111354806 -0.6070159 0.18979198 0.62199533 0.09577725 -0.21049461 -0.031043833 -0.7678503 0.624024 0.18723579 0.68445104 -0.6758193 0.8772133 -0.5225594 0.33479068 0.8496632 -0.40456828 0.52124965 0.3864066 0.06933947 0.06683124 -0.5820213 -0.29924363 -0.12552974 -0.41165105 -0.41764823 0.7107686 -0.07387506 0.118187904 0.1636541 0.73978066 0.9240611 0.31639123 0.5654965 0.24322258 -0.02366471 0.3391132 1.4020197 0.6397552 0.53675884 -0.6338408 0.4867536 -0.12354319
걸 -0.50134957 0.8823929 0.11664613 -0.05450566 0.08959307 -1.0637299 0.34076867 1.3872639 -0.5466827 -0.37391925 -0.28945073 -0.91986704 -0.07271146 0.38954723 0.29030526 -0.66278535 0.19879004 -0.98147285 -0.29272896 -0.90926796 0.38958207 0.3565297 0.47239944 -0.042358745 -0.26117367 0.09912452 -0.6385946 -0.3852173 -0.40161636 0.19298424 0.48710653 0.24361323 0.07743485 -0.57389784 -0.38084456 0.6874167 0.046497717 -0.5968585 -0.37572402 -1.3077568 0.116422035 -0.9166618 -0.63135034 -0.291308 0.8617718 -0.29437876 -0.7463056 -0.27968 0.51430815 0.5811289 0.24784203 -0.44712576 -0.1441477 0.103647776 -0.6378463 0.5053024 0.17336108 -0.14178362 -0.66857076 0.20692185 0.66903305 0.107855685 -0.22014435 -0.07363674 -0.7936125 0.63437426 0.19295795 0.7232361 -0.7306086 0.91711754 -0.5233856 0.39576468 0.8599545 -0.41917595 0.6206776 0.40593708 0.057940755 0.086586356 -0.61165035 -0.3087106 -0.10270667 -0.45244843 -0.4590785 0.7765613 -0.1308377 0.078540385 0.16776441 0.7423876 0.9274368 0.284674 0.57680947 0.24828583 0.009531549 0.31426927 1.450963 0.65035295 0.5734282 -0.683699 0.51555973 -0.12864877
무기 -0.39982557 0.7473546 0.07789545 -0.042777587 0.110631965 -0.8865204 0.25205985 1.1632501 -0.45656684 -0.30207393 -0.2509177 -0.7832263 -0.04694825 0.3538438 0.2657091 -0.5484006 0.16427314 -0.8141589 -0.24649912 -0.73755693 0.3274916 0.29487896 0.4002642 -0.029371131 -0.22002359 0.08447377 -0.540892 -0.30017132 -0.3247964 0.1755191 0.42197552 0.19040774 0.07984251 -0.49171248 -0.29039344 0.5752995 0.050581086 -0.49035293 -0.3208859 -1.0759991 0.050095286 -0.77194184 -0.52445656 -0.22734694 0.70420265 -0.23208944 -0.6102551 -0.20118405 0.43736866 0.48224524 0.23234369 -0.3798396 -0.09794501 0.089155786 -0.51284564 0.42229384 0.16806619 -0.08815499 -0.5506124 0.15552016 0.56093943 0.0859335 -0.20269726 -0.029197197 -0.653035 0.55630827 0.16798441 0.5936072 -0.61974806 0.787764 -0.46783268 0.31073016 0.72864735 -0.37182924 0.4834199 0.3509315 0.05143377 0.07110793 -0.5015237 -0.2585069 -0.10198719 -0.37736207 -0.38858253 0.6265658 -0.08446811 0.08971822 0.13720027 0.6334477 0.80356395 0.2568571 0.48967883 0.19607897 -0.020992463 0.26342365 1.2009664 0.5414254 0.49037585 -0.55376655 0.43001252 -0.1220819
이유 -0.3922734 0.6831565 0.05044105 -0.013433661 0.116245724 -0.7872753 0.20809297 1.0769706 -0.43826082 -0.26088277 -0.2426764 -0.74268365 -0.037660092 0.32990402 0.24621536 -0.50106144 0.16200921 -0.78057504 -0.225804 -0.68989253 0.28764397 0.27831957 0.3611047 -0.040472496 -0.19696115 0.071913734 -0.51610297 -0.29317597 -0.31302422 0.15364447 0.40410897 0.1863771 0.04254381 -0.47207478 -0.24364193 0.5091307 0.035728637 -0.46760634 -0.27262127 -1.0089358 0.01185737 -0.71614313 -0.5086242 -0.20440991 0.6588246 -0.20394564 -0.53851527 -0.17751166 0.4136775 0.45447156 0.22813429 -0.3439561 -0.071345374 0.11073574 -0.44178188 0.37780765 0.16863556 -0.053961094 -0.51799935 0.14099334 0.49832228 0.09950939 -0.2067782 -0.021439834 -0.5877303 0.5032565 0.13056724 0.53837657 -0.55005497 0.7068061 -0.43005437 0.28372437 0.6902394 -0.34588197 0.40664133 0.31465155 0.04003069 0.0654088 -0.43458605 -0.24580069 -0.09872466 -0.34492895 -0.36024624 0.5504538 -0.081364 0.081753284 0.12310503 0.598322 0.7589513 0.26148808 0.45977283 0.18984595 -0.025265535 0.28919733 1.1202673 0.52016366 0.44284162 -0.48571482 0.39808667 -0.12302186
느낌 -0.51529175 0.91337407 0.10693291 -0.068389915 0.11864541 -1.088335 0.33224732 1.4222203 -0.5793652 -0.36579955 -0.31761426 -0.98202354 -0.06158461 0.4082123 0.30533636 -0.6817647 0.20046763 -1.0100833 -0.30190104 -0.92234784 0.4083156 0.35653627 0.5020287 -0.052472476 -0.2673252 0.10952414 -0.653587 -0.3992402 -0.4079404 0.1990901 0.5033183 0.26282507 0.09180799 -0.5954656 -0.3802259 0.71124345 0.050211903 -0.61579317 -0.40300995 -1.3540009 0.102797516 -0.9699647 -0.65527636 -0.2821503 0.87749785 -0.3020279 -0.76520264 -0.28017014 0.52520895 0.6077135 0.2859062 -0.46266934 -0.136303 0.12012194 -0.65113413 0.5108181 0.20817159 -0.11380068 -0.6994205 0.20741615 0.698421 0.11290609 -0.24673642 -0.06410238 -0.80080664 0.67934823 0.20648019 0.7355921 -0.7671285 0.9596748 -0.5840044 0.403402 0.90403914 -0.4496838 0.62272364 0.42362553 0.07679559 0.08756445 -0.6377511 -0.31503814 -0.11440844 -0.46777046 -0.48584202 0.7770987 -0.11999959 0.095415525 0.18850476 0.79687065 0.9847605 0.3126054 0.59133136 0.25354254 -0.011917453 0.33973876 1.5168241 0.68092674 0.60620934 -0.70152944 0.55857974 -0.13490148
최근 -0.48439598 0.87772876 0.11785738 -0.055185568 0.10054175 -1.0510155 0.3071569 1.35446 -0.5496244 -0.35328135 -0.29969007 -0.91751504 -0.059693735 0.41572767 0.29902074 -0.6503162 0.18833622 -0.9468528 -0.2980992 -0.90170497 0.39917058 0.3237844 0.47827917 -0.037185803 -0.27172154 0.105087675 -0.6339864 -0.3628663 -0.39512748 0.18779723 0.48503888 0.24477457 0.09413833 -0.56490767 -0.36283565 0.6601156 0.0603435 -0.56887305 -0.3827882 -1.2805645 0.103778236 -0.89381826 -0.62847227 -0.2762202 0.8359591 -0.28520876 -0.72496295 -0.25226402 0.50007164 0.57748985 0.25534603 -0.44808403 -0.13866077 0.0955106 -0.60865927 0.5017449 0.17031482 -0.11591764 -0.6679548 0.18895867 0.65399754 0.11023154 -0.23428582 -0.05367897 -0.76288414 0.6242924 0.20245609 0.7138899 -0.7266148 0.92663765 -0.54691213 0.3731905 0.85290885 -0.41188943 0.58540076 0.42002508 0.057634294 0.079277284 -0.61221176 -0.31387562 -0.09303885 -0.4404886 -0.45488217 0.7561174 -0.12727311 0.096789 0.17307833 0.730572 0.92979157 0.29121536 0.58026123 0.2292383 -0.0117265135 0.31837568 1.4215025 0.6473416 0.5694424 -0.66052294 0.5137314 -0.13120747
정신 -0.47144207 0.8441789 0.10087487 -0.07949154 0.061065543 -1.0503001 0.323584 1.3654503 -0.5133848 -0.34469315 -0.2856445 -0.8823754 -0.08173681 0.39535815 0.28420487 -0.66448903 0.19463097 -0.96247286 -0.29250535 -0.8853844 0.39414385 0.32540086 0.4963686 -0.03766867 -0.2680046 0.09136101 -0.6161583 -0.38979614 -0.3837358 0.1852285 0.47155067 0.2521623 0.08690282 -0.55670494 -0.37331295 0.6437621 0.034296446 -0.59054166 -0.39796317 -1.2605073 0.12093617 -0.87006587 -0.5972576 -0.28513572 0.83797884 -0.26536724 -0.7430675 -0.26293445 0.4867602 0.5804629 0.2536217 -0.44437784 -0.15338174 0.090533935 -0.6122622 0.4856276 0.15238489 -0.1520912 -0.6620059 0.20958146 0.6341678 0.08748458 -0.21805613 -0.084740445 -0.75725377 0.60864437 0.1993877 0.7082866 -0.7376269 0.9020657 -0.5001805 0.3652229 0.8246646 -0.4052167 0.5895868 0.38477448 0.08155661 0.08437938 -0.59852463 -0.29692793 -0.119795606 -0.41614917 -0.46690762 0.7415433 -0.12864254 0.07473364 0.18914844 0.7392075 0.8949922 0.29752147 0.5662389 0.21872468 0.0015784854 0.2837727 1.4041253 0.6370244 0.575761 -0.6840252 0.5106018 -0.123172835
처방 -0.43605742 0.7840781 0.07222358 -0.114449866 -0.0068642977 -1.0123507 0.3509144 1.3153923 -0.48197907 -0.29869577 -0.23602313 -0.79817295 -0.06377333 0.37101117 0.23170578 -0.64070266 0.22622421 -0.917804 -0.2791579 -0.8672444 0.40035942 0.2875421 0.48052567 0.008375845 -0.26554427 0.038712483 -0.53152895 -0.36042765 -0.38800722 0.17397837 0.48537055 0.25575086 0.116387874 -0.5205937 -0.3830426 0.5823437 0.047914833 -0.5610642 -0.38236833 -1.182136 0.18360773 -0.76265913 -0.5528161 -0.28297684 0.77214265 -0.25265345 -0.7155879 -0.25440902 0.4336273 0.54946065 0.1966871 -0.43837708 -0.18020944 0.045455795 -0.571269 0.4708152 0.0946149 -0.14156266 -0.63204235 0.23105946 0.5589317 0.04730441 -0.18429631 -0.10013256 -0.74326277 0.5235026 0.18675703 0.70068306 -0.7440458 0.83473223 -0.40372115 0.36425394 0.772087 -0.32443154 0.6103278 0.30288437 0.08062603 0.06445683 -0.60919154 -0.2606838 -0.12733473 -0.3700624 -0.4623412 0.7285248 -0.1952327 0.045516953 0.20479222 0.67984194 0.8380988 0.27117515 0.53494114 0.20036878 0.05714851 0.2609539 1.3026279 0.5727714 0.57602775 -0.6824236 0.52096474 -0.10537739
알 -0.42209932 0.7915265 0.10576222 -0.06990449 0.07922968 -0.9494554 0.2912341 1.2375878 -0.5003453 -0.32678932 -0.25708532 -0.80106366 -0.0672175 0.37523395 0.2703467 -0.58971345 0.16262114 -0.85071236 -0.27952066 -0.8088543 0.37052104 0.29316813 0.44526356 -0.023019345 -0.23861143 0.07082372 -0.5737462 -0.34207058 -0.33778659 0.18488136 0.42185363 0.204076 0.09103532 -0.5244796 -0.31885916 0.6128133 0.03641683 -0.5060133 -0.32914355 -1.1427573 0.10275523 -0.8097633 -0.53956443 -0.22957864 0.7546668 -0.26976582 -0.6615665 -0.24216999 0.4473033 0.5248812 0.23310262 -0.39947972 -0.13900162 0.093794845 -0.57128894 0.44340134 0.16449752 -0.111854136 -0.5938647 0.1771305 0.58533716 0.09938574 -0.20667094 -0.054941747 -0.7047002 0.5706712 0.19521709 0.65537053 -0.6537691 0.82883483 -0.47719118 0.33118546 0.7562183 -0.3694783 0.5368724 0.34942216 0.042815384 0.097679965 -0.5367458 -0.27296668 -0.10468706 -0.39368972 -0.41827193 0.694821 -0.11447605 0.09924792 0.14882131 0.66080624 0.83608466 0.26554182 0.5090821 0.20273586 0.007841806 0.25922546 1.2897345 0.57717603 0.522797 -0.6243795 0.4518892 -0.109763086
번 -0.4632948 0.8483582 0.09370459 -0.054510858 0.06720217 -1.0063667 0.3312592 1.3368852 -0.525241 -0.32776514 -0.288379 -0.90109396 -0.04564894 0.3735247 0.26866898 -0.6444893 0.20419052 -0.9330463 -0.29282385 -0.8723813 0.39070228 0.34302914 0.47655785 -0.021205759 -0.25878894 0.10494544 -0.61336565 -0.35794482 -0.37362373 0.19595973 0.46579832 0.2240605 0.092331044 -0.56201845 -0.35370207 0.6436733 0.0542958 -0.58444357 -0.37007245 -1.2488685 0.08806067 -0.8787808 -0.5994476 -0.2681222 0.81618696 -0.26923734 -0.7315891 -0.26254037 0.48301476 0.5553673 0.2608705 -0.44405195 -0.1403027 0.08184896 -0.58446276 0.47737545 0.17669901 -0.12776682 -0.6571134 0.19889414 0.6220899 0.08509285 -0.23637304 -0.049136024 -0.7721388 0.61299765 0.1903179 0.7129898 -0.719885 0.9072665 -0.5237941 0.35906237 0.8442224 -0.40436932 0.5608495 0.38587722 0.078055166 0.07114651 -0.6025321 -0.30004567 -0.111298434 -0.4042855 -0.4459675 0.72601515 -0.13914007 0.077469304 0.15705198 0.7200544 0.8940516 0.27989542 0.5599173 0.21760596 0.0026357102 0.3046431 1.4051838 0.61921304 0.5742204 -0.65596163 0.49892637 -0.13590445
감 -0.5027943 0.8750873 0.1239601 -0.037608914 0.12281153 -1.1072547 0.34940547 1.423719 -0.545351 -0.38519183 -0.30145678 -0.9581383 -0.09967072 0.41660395 0.3117005 -0.669887 0.18270774 -0.98741275 -0.30866197 -0.89835155 0.38086492 0.37771666 0.47911927 -0.053875186 -0.26993972 0.10716644 -0.6679608 -0.39518228 -0.3912597 0.18320845 0.5140856 0.24627855 0.11529068 -0.565179 -0.37121662 0.6955088 0.058262993 -0.57605493 -0.36735278 -1.3280036 0.115582936 -0.9314755 -0.6256353 -0.29361606 0.8633473 -0.2753592 -0.78590953 -0.24237986 0.52904737 0.5873652 0.26530927 -0.44896793 -0.11593229 0.12997599 -0.6473799 0.5389155 0.1815998 -0.15423892 -0.65831053 0.21312927 0.68021744 0.118588194 -0.2603525 -0.07532462 -0.7876283 0.6510397 0.19323 0.7066514 -0.76901835 0.9338008 -0.55444026 0.3829546 0.8813845 -0.42905274 0.62370676 0.40888384 0.07818004 0.08474095 -0.61255735 -0.32630342 -0.10713292 -0.43691713 -0.4594421 0.78557384 -0.14191297 0.1232932 0.17464012 0.7527655 0.9389203 0.2850235 0.56760836 0.23538342 0.018910702 0.33762836 1.4288146 0.67790717 0.5647569 -0.67576903 0.5563336 -0.13256305
복용 -0.38780627 0.66191065 0.07654311 -0.08469046 -0.010472235 -0.829242 0.29389283 1.0993487 -0.3896033 -0.25349838 -0.2184503 -0.65591955 -0.039591175 0.28824207 0.20117518 -0.5241622 0.1814729 -0.7627265 -0.24716479 -0.7214356 0.33205137 0.24135824 0.39805332 0.0062620733 -0.23031867 0.030287165 -0.44147328 -0.30136326 -0.3215593 0.14413646 0.37245792 0.20278287 0.09301232 -0.43249905 -0.30191937 0.49659106 0.049912415 -0.47888258 -0.3327267 -0.9741116 0.1498196 -0.6395314 -0.47665095 -0.24605118 0.6705597 -0.2093202 -0.5951244 -0.21210794 0.38065428 0.4540383 0.19737078 -0.38169166 -0.15702863 0.057614934 -0.5126178 0.40211454 0.07928735 -0.13206379 -0.54396737 0.18400243 0.46191448 0.069240026 -0.17036636 -0.060511444 -0.5958914 0.4569586 0.14859542 0.59521174 -0.63532394 0.7047178 -0.3333278 0.3237576 0.6684988 -0.28105953 0.5134391 0.24864514 0.07962683 0.04726086 -0.5256991 -0.23343 -0.1268721 -0.32371387 -0.37898204 0.61700326 -0.16621609 0.03966682 0.14938447 0.58114666 0.7154494 0.21710251 0.46509257 0.15898335 0.04200619 0.21993901 1.1220298 0.5027919 0.48540294 -0.58102024 0.41208947 -0.0687289
자해 -0.46650404 0.8418172 0.11230126 -0.04473614 0.10125125 -1.0059363 0.29693192 1.3100904 -0.5336303 -0.34858358 -0.28988037 -0.90356934 -0.05948002 0.39051414 0.2828442 -0.6307278 0.1647559 -0.90977144 -0.27506718 -0.8418329 0.3766001 0.31886682 0.4712847 -0.04805309 -0.26650617 0.13067922 -0.6037772 -0.3730512 -0.370583 0.20856375 0.46165746 0.22719821 0.078326516 -0.5443118 -0.3422797 0.63424927 0.04615923 -0.54626197 -0.35414192 -1.2324984 0.09956794 -0.85823464 -0.59071785 -0.26098278 0.78866756 -0.279938 -0.689318 -0.26452714 0.5013353 0.5222219 0.23752415 -0.42936182 -0.1065939 0.09429861 -0.5782111 0.46141908 0.17954274 -0.107604556 -0.6240841 0.19756012 0.63990754 0.10121345 -0.22278138 -0.047375955 -0.7339735 0.62192124 0.19131206 0.6568793 -0.6935089 0.8769261 -0.5422407 0.35611564 0.8256858 -0.41450447 0.5605957 0.40051907 0.056237157 0.09438586 -0.5581427 -0.30188116 -0.08759335 -0.4079834 -0.43026876 0.6969296 -0.119712 0.0785112 0.15630405 0.7200855 0.9071401 0.28373238 0.5480602 0.23416834 -0.016584601 0.27836642 1.3786776 0.6014725 0.54129624 -0.6406779 0.49094242 -0.124725156
엄마 -0.4055271 0.75541043 0.096596085 -0.05785617 0.09011653 -0.90426 0.3068181 1.1981024 -0.47067532 -0.32219285 -0.26648813 -0.8138054 -0.07910354 0.32869154 0.27830294 -0.56055164 0.15843633 -0.8370956 -0.25495473 -0.7657247 0.35869133 0.29272687 0.40056685 -0.033308495 -0.24816893 0.11509671 -0.56001526 -0.32317477 -0.3546297 0.20207201 0.42458108 0.18535149 0.06182167 -0.5041583 -0.32345322 0.6100669 0.03952252 -0.51832205 -0.3493998 -1.0987597 0.07835633 -0.8003677 -0.55392534 -0.2560876 0.74646425 -0.25225678 -0.66819715 -0.26422945 0.44899225 0.48043817 0.22440925 -0.37072244 -0.09022456 0.08049168 -0.53499204 0.41567189 0.1745979 -0.10743548 -0.59258175 0.18786721 0.57853353 0.08332568 -0.2015148 -0.072174944 -0.69068974 0.53634584 0.1915976 0.6098382 -0.6296216 0.7841183 -0.50144374 0.33191833 0.74147075 -0.38807565 0.52057177 0.3629454 0.055386025 0.11033749 -0.537544 -0.2669078 -0.101016484 -0.3668588 -0.3684468 0.6746121 -0.12104381 0.08912003 0.112401985 0.64496464 0.8036516 0.22918925 0.52339166 0.2215953 0.0050756866 0.2519912 1.2492411 0.54201794 0.4804522 -0.59997183 0.44316185 -0.100072905
있습니다 -0.45909098 0.8266557 0.110974714 -0.06853538 0.07359361 -0.995209 0.31588754 1.2895832 -0.50823665 -0.33918172 -0.26352432 -0.8581938 -0.0773025 0.37882414 0.2728847 -0.6232064 0.18342046 -0.89378417 -0.27318332 -0.83332616 0.3664272 0.3022513 0.44020486 -0.013140665 -0.25411955 0.07678434 -0.5721443 -0.34608603 -0.35425916 0.17353588 0.44606698 0.22207853 0.08296806 -0.52249783 -0.3379475 0.61162347 0.060056474 -0.5592434 -0.35430136 -1.1967462 0.116141535 -0.8336772 -0.5675757 -0.24339218 0.781012 -0.2721383 -0.7115983 -0.24166663 0.47597033 0.5486321 0.23167904 -0.43173036 -0.12562594 0.086330876 -0.5832909 0.48152047 0.148729 -0.12464142 -0.6312682 0.17978318 0.59518325 0.09588285 -0.22915868 -0.07182381 -0.7288449 0.59259844 0.19013292 0.6742675 -0.69081646 0.8469845 -0.4943198 0.3724147 0.7945986 -0.39529526 0.57150024 0.38123244 0.0750246 0.07302202 -0.5746827 -0.2831111 -0.103451245 -0.40459663 -0.4327463 0.7179119 -0.114150286 0.0872324 0.15503642 0.6841694 0.85661405 0.27890566 0.53269416 0.21411711 -0.00716457 0.27894288 1.3358985 0.6015021 0.54588205 -0.64546037 0.49926016 -0.110586956
가족 -0.45867285 0.8350043 0.09779907 -0.04228218 0.10611307 -0.98792166 0.30683234 1.3062139 -0.5212334 -0.35611665 -0.28002495 -0.8765955 -0.07868295 0.37648597 0.28513294 -0.6235352 0.17963673 -0.9016318 -0.29682705 -0.84332955 0.35877517 0.31319317 0.46145925 -0.04040538 -0.25155896 0.09377164 -0.6063905 -0.36917657 -0.36720246 0.20220302 0.45012382 0.21287498 0.078382775 -0.54860467 -0.35502195 0.63919264 0.057232294 -0.5502882 -0.3486534 -1.2066965 0.09987009 -0.85893846 -0.5722827 -0.25646055 0.79780453 -0.27235243 -0.70435065 -0.2510716 0.49132046 0.54171956 0.25376126 -0.42341432 -0.11260334 0.08903403 -0.6028632 0.47245634 0.17535599 -0.10446228 -0.6377409 0.19428475 0.62734866 0.1083357 -0.21935809 -0.056399588 -0.7302481 0.589481 0.18161473 0.67668587 -0.68993884 0.86247784 -0.5235154 0.36224505 0.82589567 -0.40971395 0.56293726 0.3826204 0.04806263 0.09500595 -0.56639886 -0.29832774 -0.09787848 -0.42835778 -0.4242808 0.716014 -0.10767952 0.1003711 0.15171133 0.7057302 0.8901681 0.28891668 0.5588982 0.23906644 0.012603767 0.29205948 1.3645394 0.6034519 0.53463286 -0.6286097 0.4898345 -0.122784704
랑 -0.45737725 0.8253494 0.11589963 -0.059380453 0.09427196 -0.99198145 0.33588612 1.3066148 -0.52643657 -0.3448702 -0.28249303 -0.89501876 -0.081241764 0.35857412 0.3002867 -0.6362492 0.16695577 -0.93550414 -0.2895403 -0.8689044 0.3838958 0.3299423 0.45423192 -0.024174403 -0.25891438 0.08962965 -0.6007636 -0.36382222 -0.39171237 0.18521449 0.4599403 0.21814682 0.08772532 -0.55483466 -0.36569688 0.65172994 0.042173557 -0.5586968 -0.3732571 -1.214134 0.11882467 -0.8755829 -0.5845805 -0.25923628 0.8028543 -0.26329446 -0.727494 -0.27202493 0.47425073 0.55895436 0.224245 -0.4226948 -0.123540044 0.088810936 -0.58778876 0.4683206 0.16054708 -0.1120962 -0.6570134 0.21197617 0.6194566 0.1040776 -0.21794607 -0.08291295 -0.7584747 0.5823654 0.20387422 0.68014026 -0.6924206 0.87436086 -0.51130164 0.37291974 0.81454813 -0.41561756 0.5836554 0.3775359 0.057237815 0.09766945 -0.5731795 -0.30260444 -0.10253201 -0.40393877 -0.43022123 0.7407764 -0.13322745 0.10323592 0.13602954 0.7131569 0.8912209 0.25735992 0.5566699 0.22148463 0.02139224 0.29382715 1.3519384 0.6030395 0.5403129 -0.66418356 0.49733543 -0.13415645
울 -0.39486316 0.70109403 0.091922894 -0.019422844 0.097112484 -0.841057 0.23727529 1.1084961 -0.4418141 -0.28463444 -0.24379383 -0.7744537 -0.04830623 0.34656662 0.25018948 -0.51144093 0.144146 -0.79217136 -0.23689862 -0.7151727 0.31531173 0.29345003 0.37667096 -0.022178935 -0.22088797 0.107433714 -0.5179669 -0.28399467 -0.32148415 0.18520404 0.39675525 0.19713336 0.06478044 -0.4639885 -0.2812581 0.55648154 0.043935694 -0.47763294 -0.30108273 -1.0423379 0.046569746 -0.76937425 -0.51340926 -0.20448653 0.694099 -0.22738488 -0.5887855 -0.19724628 0.42089507 0.45316902 0.24150935 -0.34765393 -0.08602664 0.08492605 -0.48897693 0.39721665 0.17992051 -0.08963895 -0.5299794 0.1500259 0.5423988 0.09408626 -0.20316467 -0.030832851 -0.6318746 0.5385275 0.15559556 0.59019357 -0.58364487 0.75677013 -0.47076344 0.288508 0.70737976 -0.3605482 0.463242 0.35069478 0.031662475 0.0858299 -0.4765797 -0.2668968 -0.075395584 -0.35979477 -0.37435195 0.6064044 -0.06803286 0.0927162 0.13197431 0.62055075 0.7819827 0.24282803 0.48833206 0.19305548 -0.027595526 0.27223843 1.1615645 0.5347019 0.452712 -0.5195542 0.40191066 -0.1020616
자꾸 -0.38312197 0.7051459 0.08422041 -0.031058833 0.09303663 -0.820043 0.24860981 1.0857729 -0.43686864 -0.28785843 -0.25168368 -0.7563965 -0.066668965 0.32459673 0.24695167 -0.5115512 0.14428215 -0.77917844 -0.2559899 -0.7117375 0.31852415 0.29042673 0.37756348 -0.038897153 -0.19398849 0.10054735 -0.522524 -0.30005756 -0.30366993 0.18815604 0.39112714 0.20023054 0.07156847 -0.47113848 -0.26752472 0.55706024 0.057006307 -0.4526535 -0.30564332 -1.0185483 0.046860985 -0.76072496 -0.5156624 -0.20709066 0.6797544 -0.24048164 -0.5607938 -0.19289951 0.42794684 0.46776545 0.21672465 -0.3601037 -0.0716121 0.091345534 -0.5059759 0.39623398 0.16179806 -0.08172132 -0.51332366 0.16218697 0.54406023 0.0910207 -0.17418733 -0.034632526 -0.6169544 0.5195453 0.1645266 0.58003116 -0.58879995 0.7529396 -0.45985723 0.30414462 0.69933724 -0.35645527 0.44648945 0.33928666 0.035868797 0.07372505 -0.471407 -0.24024923 -0.07217131 -0.37033975 -0.36331034 0.5850021 -0.07144463 0.06480132 0.13084075 0.6075917 0.75879186 0.2600228 0.4787588 0.1970815 -0.0043797386 0.24793592 1.1505741 0.51293266 0.47348985 -0.5261896 0.41952994 -0.10937543
글 -0.5441662 0.9881369 0.123890586 -0.08177427 0.10767765 -1.2100239 0.3782274 1.5728968 -0.62155795 -0.411565 -0.3388347 -1.045941 -0.08792132 0.46032655 0.3231589 -0.7539767 0.20398755 -1.0961454 -0.3333246 -1.0422992 0.45224994 0.3970516 0.5532171 -0.031108508 -0.32034764 0.10904395 -0.6994633 -0.43466964 -0.4341299 0.22283277 0.56477165 0.27427694 0.10310955 -0.63841456 -0.4277208 0.7554049 0.066006616 -0.6593304 -0.43348208 -1.4591126 0.14600639 -1.0215617 -0.70548666 -0.30604368 0.9657085 -0.3226908 -0.8447857 -0.31828552 0.5698616 0.66377205 0.27306837 -0.5010533 -0.14799233 0.10140565 -0.71999997 0.56275237 0.19513638 -0.15516345 -0.7613821 0.23269968 0.74443465 0.12994681 -0.26381946 -0.09029116 -0.87826943 0.7033181 0.2417817 0.8060026 -0.8463346 1.0316136 -0.61384577 0.4436711 0.9694571 -0.47668892 0.6852527 0.46314284 0.08776007 0.1093112 -0.7024892 -0.3432029 -0.11730655 -0.5026561 -0.5231948 0.8539317 -0.13523582 0.09878764 0.19872221 0.84045184 1.0402083 0.3264576 0.6448589 0.27245486 0.018041255 0.34829527 1.6502963 0.7286699 0.6674094 -0.78549993 0.59716976 -0.12526661
같아서 -0.41439304 0.76451486 0.08379583 -0.06601643 0.07558193 -0.91213447 0.28007612 1.1914943 -0.47912732 -0.32058397 -0.24222368 -0.8003294 -0.07156192 0.3432933 0.25192887 -0.5771464 0.16165115 -0.8336957 -0.24781942 -0.7990477 0.33661297 0.2934508 0.41783538 -0.032851104 -0.2410691 0.07386325 -0.53080386 -0.34586933 -0.3417242 0.17565522 0.42683783 0.1882677 0.08647426 -0.49949107 -0.3249378 0.572287 0.034668177 -0.5023485 -0.3230402 -1.1018801 0.108075 -0.78329164 -0.5346802 -0.24198338 0.72242206 -0.24054405 -0.63545257 -0.24393155 0.4428848 0.50328875 0.20644842 -0.3831138 -0.119400516 0.09838882 -0.532474 0.43689102 0.14602213 -0.12369643 -0.5696177 0.17356697 0.57106286 0.093321405 -0.20450129 -0.060898278 -0.66596735 0.53596884 0.18578936 0.6059831 -0.64158225 0.7928322 -0.46161646 0.3253426 0.731722 -0.35716665 0.5133073 0.3439786 0.047831804 0.085228585 -0.5253032 -0.25250092 -0.09510265 -0.38075984 -0.39311767 0.66115385 -0.11349983 0.06725564 0.13536473 0.6423282 0.8066656 0.25582078 0.4891699 0.19870935 -0.0070827403 0.26456293 1.222256 0.5505262 0.5028355 -0.5926329 0.43718207 -0.09632629
싫고 -0.40104756 0.694443 0.069083095 -0.02665191 0.1021188 -0.8586773 0.23358004 1.129942 -0.45790005 -0.31936663 -0.23828125 -0.78221405 -0.055347484 0.32949567 0.27099234 -0.5179794 0.1581933 -0.7732204 -0.2586246 -0.7098094 0.31044608 0.27605605 0.35256296 -0.03305613 -0.19820178 0.10163978 -0.52689916 -0.30701703 -0.32098344 0.18547817 0.38745773 0.19850396 0.053973164 -0.4940756 -0.29564375 0.5566048 0.028996041 -0.48032236 -0.3115682 -1.0472296 0.051936205 -0.7631296 -0.49819225 -0.22631964 0.67694485 -0.23604292 -0.5598487 -0.2112229 0.41118556 0.47812164 0.22395049 -0.3683583 -0.074797355 0.07672523 -0.51267695 0.39077118 0.16121404 -0.07514034 -0.51051277 0.17131032 0.5495224 0.08492795 -0.19755863 -0.051064394 -0.6256836 0.54018277 0.15607382 0.57843536 -0.5719116 0.73996997 -0.46589196 0.2937931 0.68492985 -0.37317687 0.4737297 0.3257884 0.03852815 0.09040539 -0.46520025 -0.265149 -0.084747545 -0.35726982 -0.3595705 0.59738624 -0.07154174 0.08000557 0.12160991 0.60418695 0.7773806 0.23615387 0.47001886 0.17581682 -0.014826951 0.26568326 1.1598034 0.52059567 0.48023716 -0.54609454 0.4172585 -0.1134263
항상 -0.488485 0.86106324 0.115694314 -0.037440248 0.09608038 -1.0302281 0.30735686 1.3490754 -0.53399485 -0.36631194 -0.29128733 -0.9268377 -0.07134147 0.40437216 0.28351188 -0.6414807 0.1840293 -0.95831716 -0.29536757 -0.8747111 0.37550905 0.32928708 0.46766964 -0.024118999 -0.2613388 0.12173347 -0.63288116 -0.35872546 -0.39137056 0.2002214 0.47101492 0.23298809 0.07958155 -0.5556636 -0.35686117 0.67067313 0.065596946 -0.58530664 -0.37488982 -1.2736046 0.08300056 -0.8973055 -0.6110565 -0.26905376 0.8297054 -0.29080617 -0.72479093 -0.2579711 0.5162885 0.5699953 0.25201228 -0.43060943 -0.12092958 0.10156069 -0.6161411 0.4825021 0.1885541 -0.13000731 -0.6589312 0.18869792 0.65809906 0.10838552 -0.22574243 -0.048655048 -0.76792604 0.62107444 0.20701684 0.7044222 -0.70732117 0.91605586 -0.52818465 0.36912274 0.84840477 -0.41522384 0.5846095 0.42057893 0.05005188 0.08815023 -0.58277404 -0.30196276 -0.1007214 -0.42309433 -0.43384516 0.7243154 -0.11439254 0.08269463 0.16762692 0.74066496 0.91949004 0.29273927 0.5752468 0.24445038 0.0036546886 0.30833694 1.4128475 0.64120036 0.56685746 -0.65883416 0.49698257 -0.11379784
기도 -0.45553747 0.8115261 0.092892885 -0.048246387 0.09697226 -0.96609724 0.27465484 1.265076 -0.51096314 -0.34464264 -0.26477164 -0.8587785 -0.05824954 0.3588674 0.2711055 -0.5985101 0.18280871 -0.8992833 -0.2679903 -0.8393809 0.3493273 0.31253728 0.43809965 -0.04103692 -0.25060615 0.10470619 -0.589975 -0.34688982 -0.35396615 0.19218789 0.45289335 0.22318354 0.06594201 -0.54598945 -0.3284713 0.6303638 0.040639784 -0.54671514 -0.34439301 -1.1962698 0.09277559 -0.8285732 -0.58015895 -0.2584392 0.7835902 -0.26693913 -0.6723508 -0.24532308 0.46208718 0.51970077 0.23185469 -0.4084238 -0.107482 0.111836225 -0.5630789 0.46148112 0.15607874 -0.104950935 -0.61337847 0.19643675 0.61054504 0.09796266 -0.20373958 -0.05720408 -0.71184874 0.58516234 0.1938316 0.65452546 -0.6650928 0.84802336 -0.5028527 0.35957217 0.7764968 -0.39969778 0.5296595 0.3892747 0.05124296 0.08535293 -0.54001576 -0.29505903 -0.10142155 -0.40182018 -0.4192284 0.6922918 -0.102943026 0.074943654 0.15487416 0.69720256 0.86117697 0.2820385 0.5188498 0.2139283 0.008432632 0.29235548 1.3207312 0.58404946 0.53835624 -0.6166783 0.48843458 -0.11455924
걱정 -0.43377987 0.79887617 0.09545769 -0.054409087 0.08729164 -0.9730908 0.30909133 1.2567184 -0.51356363 -0.32295918 -0.26252085 -0.85290277 -0.0722029 0.36284313 0.269434 -0.5948598 0.17806517 -0.8920098 -0.27909946 -0.83508664 0.35488075 0.32105118 0.43495035 -0.03072893 -0.25638002 0.105380945 -0.5698661 -0.3494957 -0.35722643 0.18669304 0.46370986 0.21320535 0.08395382 -0.53228676 -0.32936695 0.63133395 0.05990326 -0.5425947 -0.35467398 -1.1871437 0.10897002 -0.84176606 -0.5771335 -0.2431941 0.7710709 -0.25674364 -0.69039655 -0.23556677 0.471263 0.5178266 0.23717088 -0.4145279 -0.10908961 0.1025133 -0.5861063 0.46982887 0.16794963 -0.11173276 -0.622993 0.17821506 0.59206474 0.099729456 -0.21469377 -0.055824798 -0.7097392 0.5902585 0.19047625 0.65381277 -0.6755616 0.85017014 -0.5039038 0.3466276 0.7807732 -0.38438296 0.5478521 0.37016305 0.058182616 0.09704621 -0.55167925 -0.27544415 -0.10364856 -0.4070662 -0.41757783 0.6847309 -0.12528884 0.085536495 0.15286748 0.69026816 0.8595432 0.28134084 0.5200972 0.22895624 0.00059223385 0.27904016 1.3112185 0.5856485 0.53131473 -0.6358169 0.49101385 -0.10659894
방법 -0.40107056 0.7231085 0.10069249 -0.07342232 0.06608663 -0.88224435 0.28100863 1.1459626 -0.4624062 -0.2844526 -0.23726922 -0.76567584 -0.0591549 0.3242368 0.25130352 -0.56833404 0.16539086 -0.8039637 -0.24611317 -0.7732581 0.34099182 0.28171498 0.39557296 -0.02104755 -0.23605564 0.06981343 -0.5036357 -0.3159398 -0.34049895 0.16015075 0.41882294 0.18946856 0.07412941 -0.47220168 -0.32988968 0.5509247 0.04670649 -0.49467054 -0.32346913 -1.0624524 0.10628228 -0.7400729 -0.5114299 -0.2253398 0.7022062 -0.23347352 -0.61513996 -0.22164743 0.40049416 0.49294156 0.21391958 -0.38824147 -0.12119348 0.06791636 -0.52307314 0.42219457 0.1229497 -0.12800428 -0.57193434 0.16381152 0.5200076 0.087263964 -0.18546447 -0.07573866 -0.6419139 0.524028 0.17903024 0.6074756 -0.6316389 0.7536785 -0.41951105 0.32829496 0.70279986 -0.35006347 0.5137914 0.34336647 0.052434858 0.08313273 -0.51233786 -0.25527954 -0.10363546 -0.3665782 -0.39135018 0.6418921 -0.12512939 0.084247455 0.13592575 0.6060453 0.77131164 0.25294885 0.47613785 0.20254137 0.019950788 0.24195653 1.1962439 0.5246455 0.48593366 -0.58727574 0.44771037 -0.107866004
먹고 -0.4123078 0.7483582 0.08751049 -0.073245175 0.043602865 -0.9199571 0.29621553 1.199516 -0.46213713 -0.29795662 -0.25411144 -0.7621655 -0.057320297 0.33550918 0.2395234 -0.5627199 0.17754026 -0.8356888 -0.26589805 -0.78955233 0.34185874 0.2913975 0.40716386 -0.011264919 -0.2369415 0.07814843 -0.5329794 -0.31343982 -0.34866697 0.17425361 0.41478437 0.21830302 0.07249989 -0.4909254 -0.33209196 0.56720996 0.053509254 -0.51621413 -0.33735085 -1.1099284 0.11187413 -0.77045923 -0.52398 -0.24631135 0.74347836 -0.23752579 -0.65271777 -0.22043823 0.41850358 0.50883067 0.20863135 -0.39249158 -0.12882845 0.072164446 -0.54597926 0.432274 0.13069096 -0.110407755 -0.59109676 0.18460317 0.54098105 0.069763 -0.19988391 -0.058377285 -0.66254985 0.54193974 0.18392736 0.6404693 -0.66488326 0.7899715 -0.4226948 0.34691522 0.7414668 -0.33828205 0.5308665 0.33312562 0.051272728 0.082812905 -0.5305761 -0.27113304 -0.10275211 -0.36368048 -0.40237522 0.6727634 -0.11759715 0.069863044 0.17051043 0.65036464 0.7980308 0.2515472 0.5097402 0.2016977 0.003175174 0.25207177 1.2328801 0.5545803 0.5204921 -0.622176 0.46268436 -0.090954214
가요 -0.36898306 0.6830119 0.08567662 -0.04613157 0.063864976 -0.82938635 0.25839454 1.0833869 -0.430546 -0.26774672 -0.22535129 -0.70149225 -0.067943476 0.3113135 0.24058485 -0.53137696 0.15663059 -0.7598004 -0.21716554 -0.7269009 0.30495924 0.28127337 0.37485757 -0.021356255 -0.20543186 0.058580767 -0.4898542 -0.31195334 -0.30753583 0.15854812 0.38226396 0.18664826 0.08413004 -0.44257227 -0.29618183 0.5236598 0.034455944 -0.47378013 -0.29758903 -1.004703 0.110157475 -0.70001155 -0.47502688 -0.21444345 0.65854424 -0.21284865 -0.5983741 -0.19871682 0.38740122 0.45320284 0.20065953 -0.34149918 -0.12565964 0.076017894 -0.4887379 0.3950249 0.12551357 -0.101231664 -0.52585 0.15889831 0.49419054 0.0858877 -0.17918777 -0.072513506 -0.61532974 0.4759877 0.1545169 0.56076175 -0.5922039 0.7064546 -0.3854158 0.3126695 0.6594489 -0.31618923 0.49000707 0.3053848 0.06308738 0.0667817 -0.4945522 -0.24682005 -0.0976795 -0.3303502 -0.35927436 0.59112436 -0.10857783 0.07048514 0.13068703 0.5913703 0.73523825 0.23261169 0.45214683 0.18596734 -0.003033881 0.23788866 1.124169 0.5055633 0.46359387 -0.5549519 0.41801378 -0.105337106
막 -0.41997173 0.7670272 0.08876013 -0.04284661 0.094284706 -0.9033081 0.27224097 1.2034075 -0.46931595 -0.31212246 -0.26160002 -0.821561 -0.072642826 0.35214293 0.2606915 -0.5543251 0.17276312 -0.8512441 -0.2582412 -0.7813564 0.34133166 0.31515124 0.42424503 -0.03698267 -0.23726226 0.105860345 -0.5358657 -0.31157684 -0.33819762 0.19141392 0.43764606 0.1894327 0.08064308 -0.5039989 -0.31701383 0.5903516 0.058545515 -0.5175466 -0.31569198 -1.1210986 0.06577619 -0.79636484 -0.550122 -0.2260506 0.7410299 -0.2369391 -0.625387 -0.23859487 0.45261255 0.4885969 0.22903043 -0.37275156 -0.11228293 0.1012307 -0.5465435 0.42179185 0.17478798 -0.09522411 -0.5673868 0.17360176 0.5738615 0.09653963 -0.21443993 -0.04133124 -0.68266416 0.5629649 0.1684994 0.61588293 -0.62598246 0.7960094 -0.4858978 0.320867 0.73240334 -0.3614327 0.49792725 0.36486703 0.03873343 0.085061006 -0.5243617 -0.2583736 -0.08669696 -0.3798237 -0.37862593 0.6478367 -0.08000584 0.093775675 0.14531945 0.65924823 0.8142953 0.25938022 0.51230997 0.19722031 -0.0032560409 0.2619031 1.2665774 0.55909973 0.5067579 -0.5883415 0.45484364 -0.11615968
자주 -0.42293575 0.74774694 0.08923884 -0.037138056 0.101656675 -0.8712825 0.26942 1.1560273 -0.45591563 -0.31423286 -0.2480958 -0.7772041 -0.06738806 0.3456422 0.24370503 -0.5489439 0.16917004 -0.80376667 -0.2477711 -0.74475545 0.33289358 0.28275692 0.39051443 -0.029631998 -0.20963402 0.08963195 -0.53021723 -0.3100746 -0.33221948 0.17389901 0.39273715 0.20800059 0.067988284 -0.48984894 -0.295348 0.578149 0.064621985 -0.496942 -0.31759217 -1.0799623 0.06582957 -0.7805181 -0.5185568 -0.22331995 0.72174764 -0.24127805 -0.6126839 -0.20796226 0.4491503 0.47790506 0.23050909 -0.3609709 -0.09857814 0.097158976 -0.52589804 0.40698755 0.17471504 -0.09533457 -0.54789525 0.15422836 0.56225765 0.104316115 -0.19607605 -0.058217637 -0.6588122 0.54850435 0.17106678 0.60038954 -0.6175083 0.77740353 -0.48317754 0.31359395 0.72328776 -0.35955745 0.4903714 0.36279956 0.03719511 0.08107651 -0.5086527 -0.26805258 -0.0813125 -0.3597489 -0.38406825 0.62358433 -0.07524373 0.09207556 0.14335638 0.6183816 0.7999376 0.26635617 0.49586162 0.20177975 -0.008158766 0.26792237 1.2133284 0.54969853 0.47814637 -0.5667947 0.4415145 -0.11260268
처음 -0.44482523 0.8092232 0.10108108 -0.06143992 0.08899171 -0.9859545 0.30505282 1.2632568 -0.5076462 -0.32469836 -0.268271 -0.84529155 -0.06811587 0.35666284 0.28033376 -0.61176795 0.17171882 -0.880063 -0.27121606 -0.82660335 0.36852565 0.3193752 0.4547169 -0.01609824 -0.24761224 0.092542455 -0.5784901 -0.36123455 -0.34912813 0.18690738 0.4558612 0.21822514 0.08292527 -0.5246775 -0.34588417 0.6342513 0.055796076 -0.53562135 -0.35668463 -1.1888155 0.11336325 -0.82922393 -0.5746666 -0.26297128 0.76710904 -0.26540086 -0.69759035 -0.24694791 0.4760114 0.5194739 0.23514532 -0.416813 -0.1225027 0.09448934 -0.5877508 0.45925832 0.15765622 -0.1274867 -0.6132679 0.18587662 0.61393565 0.10524706 -0.22656687 -0.07239334 -0.70664865 0.5867036 0.19099648 0.6491716 -0.6798713 0.8424026 -0.51019627 0.3574027 0.7767423 -0.37558675 0.5404683 0.38938317 0.054307956 0.09605572 -0.5648542 -0.29267865 -0.086655095 -0.4142331 -0.42565104 0.70295244 -0.12617183 0.09577389 0.14919974 0.6777777 0.86223614 0.2746892 0.5387146 0.2192912 -0.0037454753 0.2772277 1.3272066 0.5792098 0.5414799 -0.6276564 0.47255313 -0.1209524
학년 -0.460747 0.82653886 0.11469649 -0.06336198 0.102852866 -1.0239117 0.30978927 1.3231009 -0.5110155 -0.33659506 -0.28430122 -0.8811797 -0.08744405 0.37787262 0.27561435 -0.633918 0.17050798 -0.9373219 -0.2947342 -0.8626928 0.3908393 0.34593755 0.47870526 -0.020125804 -0.25027883 0.11073632 -0.6228996 -0.36103827 -0.37770635 0.20005067 0.457586 0.22279066 0.09468464 -0.5591221 -0.36437294 0.66404146 0.048159353 -0.5655287 -0.37771407 -1.2164835 0.098467276 -0.86740035 -0.59748214 -0.25670442 0.8119474 -0.2968693 -0.7156089 -0.26440415 0.5119059 0.55295926 0.23957953 -0.42728558 -0.12502466 0.11467874 -0.5817975 0.4866062 0.19152296 -0.1299099 -0.63781565 0.18114834 0.6210982 0.09657529 -0.23349263 -0.072346985 -0.7520107 0.60883015 0.1917948 0.6723649 -0.6920671 0.88777995 -0.54101294 0.36397722 0.8108576 -0.39187074 0.5678704 0.4116534 0.06756089 0.083142444 -0.6006033 -0.31116444 -0.08463545 -0.4194905 -0.4327096 0.7310868 -0.13125454 0.10751276 0.135681 0.7219412 0.8795651 0.29666385 0.5507617 0.22191338 0.0005737768 0.29873946 1.3864083 0.617516 0.5527711 -0.63628644 0.48442438 -0.1327237
현재 -0.34639168 0.620831 0.071967945 -0.057869498 0.05757073 -0.7564701 0.2406745 0.98284054 -0.36724156 -0.24881855 -0.2001505 -0.6299539 -0.038290072 0.27943474 0.20124562 -0.4732068 0.13655303 -0.67676526 -0.20502521 -0.6420516 0.28634575 0.2292075 0.34066227 -0.026651744 -0.18380445 0.06976495 -0.4369882 -0.2548634 -0.27834684 0.12593281 0.3339855 0.16653986 0.059539113 -0.38892043 -0.2580549 0.4674221 0.03969693 -0.4252948 -0.26711643 -0.9066241 0.08446442 -0.6300594 -0.43239984 -0.20651625 0.5959352 -0.20753613 -0.5203912 -0.19529042 0.3463764 0.4082136 0.16789255 -0.3137492 -0.11213528 0.06821848 -0.43202227 0.3537765 0.11549964 -0.087588735 -0.4752716 0.15000159 0.45962283 0.062378146 -0.16002767 -0.06063732 -0.5467335 0.44619605 0.14043275 0.4982332 -0.5251324 0.650806 -0.35460776 0.26226848 0.60431284 -0.27733782 0.4182632 0.2727006 0.048001446 0.05291414 -0.43930078 -0.202094 -0.082831606 -0.3101839 -0.3296339 0.52765244 -0.094429485 0.07077937 0.12683946 0.5188307 0.6597223 0.19617598 0.39787263 0.15177807 0.016795458 0.20830543 0.9992221 0.4400465 0.42180297 -0.49076632 0.3605862 -0.07807109
예전 -0.44843152 0.8015549 0.10124735 -0.057736207 0.08422809 -0.94929475 0.27803883 1.2487198 -0.4851219 -0.31566823 -0.2776362 -0.83392256 -0.0690257 0.37302625 0.27593488 -0.59356886 0.16849762 -0.8584656 -0.26533303 -0.8038767 0.3458204 0.301828 0.42534605 -0.022718584 -0.24923265 0.093049094 -0.56985223 -0.34256142 -0.34754035 0.18287764 0.4330253 0.20557413 0.06832892 -0.5147589 -0.33307064 0.5939958 0.057264287 -0.52027243 -0.3377254 -1.1630791 0.093503796 -0.8131099 -0.57067436 -0.2556922 0.7524627 -0.25494263 -0.67468023 -0.23614949 0.47226176 0.5220435 0.2259453 -0.3924709 -0.11173488 0.08131679 -0.5549601 0.45797634 0.16988465 -0.11555331 -0.5921808 0.1732653 0.58187854 0.09765876 -0.22043218 -0.05921957 -0.7062007 0.56518143 0.18226328 0.64514476 -0.6608909 0.8384582 -0.48569056 0.32869014 0.7574872 -0.38520512 0.5301056 0.36332512 0.066629134 0.089717895 -0.5532197 -0.26986733 -0.09943034 -0.40106025 -0.40939298 0.6858273 -0.109947406 0.07968919 0.14920828 0.67742306 0.8518892 0.25999787 0.5115093 0.21024144 0.0010029263 0.28223163 1.2985908 0.5784432 0.52477515 -0.60661644 0.46868393 -0.106522016
할까 -0.24600273 0.47546667 0.042452455 -0.04151719 0.04458585 -0.5705036 0.18293034 0.7498162 -0.2708221 -0.18998645 -0.12612069 -0.46736085 -0.047912277 0.2064569 0.17352961 -0.32576025 0.109100215 -0.527412 -0.1671533 -0.51045746 0.1974718 0.17941333 0.25431308 -0.010650939 -0.14488381 0.04878884 -0.31828555 -0.2311943 -0.19268012 0.11883457 0.29154614 0.117509075 0.03723402 -0.30703744 -0.2203377 0.3371023 0.025998939 -0.3203291 -0.20385802 -0.68514985 0.08190516 -0.478088 -0.30805013 -0.15094756 0.4287028 -0.14375429 -0.3950819 -0.14981553 0.25542992 0.3303357 0.10639195 -0.22238258 -0.08115788 0.0694653 -0.31884545 0.26139244 0.07574863 -0.07579444 -0.36126676 0.10749629 0.34646887 0.031002566 -0.11444533 -0.027159194 -0.41334724 0.32246903 0.11798904 0.35828972 -0.39623395 0.49913773 -0.26244077 0.19887742 0.44305226 -0.23112828 0.32590201 0.21638642 0.03596381 0.06662314 -0.3316533 -0.13668637 -0.058197476 -0.23056392 -0.24773687 0.3871581 -0.084299974 0.04191076 0.068541914 0.426991 0.4986923 0.1578555 0.31455755 0.13075048 0.013649699 0.15200639 0.7731251 0.35542992 0.30691162 -0.3842726 0.26930955 -0.0594769
자살 -0.37348953 0.7005665 0.0971894 -0.048157346 0.091604546 -0.84288484 0.24743442 1.0831716 -0.4240458 -0.29609296 -0.23196551 -0.7482978 -0.053564515 0.3258548 0.21760006 -0.50573957 0.13979049 -0.751433 -0.24436416 -0.72051626 0.2962876 0.27432847 0.37805554 -0.02603118 -0.22761513 0.10111419 -0.49808148 -0.30407146 -0.31383038 0.17402835 0.38790292 0.17383182 0.075813 -0.4632363 -0.28522116 0.5435111 0.043153513 -0.45940647 -0.2884167 -1.029191 0.085667565 -0.7160957 -0.5035175 -0.21339925 0.67336464 -0.22820106 -0.5650616 -0.21014544 0.42076662 0.44343638 0.21330675 -0.36628783 -0.09430493 0.097560965 -0.49873576 0.41333345 0.13643262 -0.095767185 -0.5178421 0.15691473 0.53557545 0.07812877 -0.18917872 -0.034678753 -0.6019654 0.51129043 0.16630864 0.54838103 -0.58700424 0.7345146 -0.43693691 0.30743247 0.68935734 -0.34604046 0.4627279 0.34537867 0.038791317 0.06332508 -0.47880828 -0.25956538 -0.08154701 -0.34452063 -0.36721182 0.58977777 -0.09881924 0.06773296 0.13706249 0.59867615 0.7402844 0.24718477 0.45360172 0.19135498 -0.003007897 0.25115213 1.1542654 0.50284404 0.4573983 -0.5415538 0.4203585 -0.1048952
진단 -0.3760451 0.6992095 0.07563987 -0.06785278 0.037414465 -0.8591245 0.28177878 1.0978119 -0.40643588 -0.26230407 -0.23222946 -0.7148436 -0.058302384 0.31780192 0.21819752 -0.5351127 0.15883216 -0.7878092 -0.21625742 -0.7527051 0.31958348 0.2766419 0.41445354 -0.021603938 -0.22979397 0.0545465 -0.4756441 -0.31334665 -0.322098 0.14685453 0.4108286 0.19501269 0.09054788 -0.43134838 -0.32433134 0.52477455 0.022058398 -0.4886147 -0.3109494 -1.017563 0.13069075 -0.69224906 -0.46531352 -0.23604126 0.6610525 -0.21816628 -0.61349624 -0.21717292 0.38427168 0.45941365 0.19274202 -0.3673401 -0.13559762 0.066884264 -0.5006576 0.4128711 0.12369663 -0.12626016 -0.56416917 0.1738755 0.5040361 0.07733734 -0.18407066 -0.06692361 -0.6161898 0.4706136 0.16074446 0.5736251 -0.61577684 0.7126189 -0.36993575 0.31190836 0.6554259 -0.30691463 0.5131537 0.30941308 0.056351725 0.06354125 -0.4935182 -0.23354755 -0.11218584 -0.3435593 -0.37975353 0.6326441 -0.12933336 0.055957627 0.16258223 0.5868437 0.72510064 0.22309095 0.45905203 0.18234578 0.018091537 0.22212379 1.1206099 0.50136745 0.4717255 -0.5750986 0.43695733 -0.089869514
머리 -0.44360936 0.8030363 0.09803624 -0.043856833 0.099449426 -0.9491868 0.2849984 1.2641342 -0.50132537 -0.32976243 -0.2887483 -0.859638 -0.06438745 0.37863258 0.2657847 -0.5987983 0.16957669 -0.87377787 -0.25919628 -0.8048916 0.35388058 0.3032486 0.44786957 -0.030232195 -0.23787397 0.108534984 -0.56548226 -0.3405274 -0.36197528 0.18683754 0.4427433 0.22110592 0.07200978 -0.5114648 -0.33066472 0.6145872 0.06403204 -0.5481496 -0.3527358 -1.166464 0.0796123 -0.831932 -0.5834208 -0.2592389 0.7639232 -0.26176378 -0.6621356 -0.23107667 0.47785208 0.5273989 0.24134853 -0.41548663 -0.098786056 0.08528095 -0.56054586 0.45024255 0.17078261 -0.10799231 -0.5981985 0.17201605 0.60722464 0.09828406 -0.21460098 -0.06004552 -0.7232434 0.57841104 0.17552574 0.65262526 -0.6800308 0.85642105 -0.49498722 0.3396467 0.7808855 -0.3974316 0.52123916 0.38121498 0.05250326 0.094316974 -0.5461939 -0.2826371 -0.0849084 -0.4061979 -0.42332193 0.68865895 -0.11029892 0.08257285 0.15767463 0.6750141 0.85735154 0.28040552 0.5311456 0.21569213 -0.0067815995 0.29656917 1.3184093 0.58086324 0.5233444 -0.6260548 0.47347975 -0.118214495
달 -0.4341852 0.75668067 0.08890277 -0.059443776 0.073765084 -0.9162361 0.2948073 1.198798 -0.45382276 -0.29982674 -0.24984604 -0.79263234 -0.047811948 0.3482166 0.25795263 -0.58508766 0.17574036 -0.83061916 -0.24334276 -0.78133273 0.35071835 0.29602215 0.4082417 -0.012361822 -0.24093796 0.09523299 -0.5542815 -0.32691774 -0.33112133 0.17074226 0.4099344 0.20727588 0.070199855 -0.48517868 -0.30611762 0.5760731 0.059922114 -0.51420945 -0.32969937 -1.1092538 0.08363259 -0.7807182 -0.54731506 -0.23382755 0.7266956 -0.23995392 -0.6466899 -0.214725 0.44778746 0.51124316 0.22843993 -0.38948816 -0.115918435 0.085886255 -0.5427239 0.44191065 0.16572729 -0.103738315 -0.5806377 0.1821594 0.56137 0.090106234 -0.20863745 -0.0596888 -0.68339837 0.55339915 0.16293997 0.6358677 -0.65279806 0.7960401 -0.4664838 0.33839145 0.7468707 -0.35837844 0.5104486 0.34089455 0.04681089 0.0878954 -0.54385495 -0.26351827 -0.09338052 -0.35855243 -0.3929162 0.6627525 -0.10622593 0.08878451 0.13881855 0.6406323 0.8110244 0.25431517 0.5050896 0.19645834 -0.002625969 0.27118802 1.244713 0.5660073 0.51649404 -0.59253013 0.45572516 -0.118216544
엄청 -0.42419863 0.7685637 0.09915952 -0.04038094 0.10581083 -0.91196406 0.2923161 1.2039472 -0.48706618 -0.32309067 -0.2704654 -0.81800604 -0.054388568 0.36314633 0.26316047 -0.56851315 0.1590974 -0.8414789 -0.25578624 -0.782478 0.3541834 0.29387876 0.40172637 -0.022053713 -0.22645439 0.08826545 -0.54878324 -0.33074713 -0.33346686 0.18327706 0.4183966 0.2154035 0.06134879 -0.5130524 -0.3056915 0.6020484 0.061560206 -0.5078256 -0.33121574 -1.1358817 0.076520465 -0.8116465 -0.5468699 -0.22738299 0.74997526 -0.25303796 -0.65316504 -0.21717076 0.4627065 0.49656874 0.2362121 -0.37647417 -0.10360198 0.09955667 -0.5545843 0.42399168 0.1603756 -0.10997227 -0.58681965 0.17756587 0.57456857 0.102839306 -0.2026537 -0.0535456 -0.6940229 0.55652916 0.17838626 0.63643736 -0.6418339 0.8157235 -0.48550937 0.34334356 0.74919206 -0.38805196 0.51045454 0.3702207 0.059927132 0.07547604 -0.5235259 -0.26614648 -0.08318058 -0.38792485 -0.39508206 0.64679 -0.09053361 0.08338134 0.14866143 0.6659719 0.8356355 0.2698646 0.503445 0.22059058 -0.013449837 0.28268546 1.256216 0.5695821 0.5041881 -0.590192 0.46325076 -0.109576255
테스트 -0.35859594 0.6491951 0.08385186 -0.054420225 0.060813956 -0.7878217 0.2524413 1.0123736 -0.38868794 -0.25268048 -0.21046737 -0.6788801 -0.056970946 0.29413283 0.20399058 -0.5041949 0.1482108 -0.7217014 -0.21906804 -0.702967 0.3054388 0.26268208 0.351411 -0.03869125 -0.206109 0.058610376 -0.45925188 -0.28891385 -0.3090107 0.13381165 0.37207517 0.17397238 0.059652902 -0.42979556 -0.28642368 0.4945739 0.019180704 -0.42986304 -0.26573718 -0.95713085 0.0869877 -0.6351964 -0.43261304 -0.20197019 0.60850143 -0.2218722 -0.55589694 -0.19513594 0.37801605 0.42236 0.19052714 -0.34358296 -0.10778222 0.08751069 -0.46602276 0.39142692 0.11814543 -0.10781783 -0.5172512 0.15759474 0.47335613 0.083829716 -0.16014445 -0.068875775 -0.57643306 0.4539483 0.13860136 0.518536 -0.5375783 0.65462744 -0.35974115 0.29350108 0.59994936 -0.29985064 0.45158014 0.30913854 0.04967358 0.07774696 -0.4548162 -0.22838359 -0.09630573 -0.3092264 -0.33884883 0.5589491 -0.112394854 0.07115045 0.14066994 0.53916556 0.6764977 0.20926414 0.42942184 0.1790567 -0.0077600563 0.20482574 1.0476987 0.4695637 0.43716565 -0.5072904 0.39258182 -0.078068905
받아 -0.3483825 0.6474356 0.08745782 -0.065624736 0.042064685 -0.8137629 0.2486412 1.0346119 -0.4082645 -0.24333662 -0.21814272 -0.6907801 -0.05359408 0.3067662 0.22088954 -0.5129542 0.16763103 -0.7369307 -0.22298485 -0.7150956 0.30600673 0.24162403 0.3862079 -0.0037007732 -0.21149646 0.06958254 -0.4531012 -0.28145024 -0.3192255 0.14629498 0.37956345 0.18586145 0.07026652 -0.43839636 -0.2945661 0.4765423 0.03962883 -0.46695757 -0.30047753 -0.9503104 0.10111129 -0.66267055 -0.46265572 -0.23048586 0.63292456 -0.22118087 -0.5778146 -0.22414935 0.37814307 0.43065262 0.16634314 -0.33901983 -0.12561694 0.075138964 -0.4665787 0.3702483 0.0988164 -0.12572725 -0.50288284 0.18152381 0.47263443 0.05204566 -0.17030987 -0.055896305 -0.60405153 0.470754 0.16142082 0.542775 -0.5757929 0.7055509 -0.37412754 0.2919723 0.6386327 -0.31074306 0.45994937 0.2997577 0.06263727 0.0700293 -0.45937085 -0.22372551 -0.10937257 -0.33716866 -0.3409268 0.5759878 -0.11669863 0.061454657 0.1309168 0.5670868 0.7030446 0.21162902 0.4293783 0.17314038 0.027852824 0.21369703 1.0685068 0.47138682 0.4469208 -0.53458583 0.40098166 -0.08860013
상황 -0.45605084 0.84992886 0.112504564 -0.059723493 0.09212183 -1.0213279 0.31290448 1.3395395 -0.5325725 -0.34147754 -0.2854767 -0.87869006 -0.06554313 0.38212824 0.28404766 -0.642526 0.17365883 -0.92823946 -0.2827374 -0.88549167 0.3858193 0.32913154 0.45697793 -0.033316687 -0.26582372 0.10184483 -0.5933646 -0.36512518 -0.37565267 0.18357244 0.47783732 0.2365722 0.09781207 -0.54480046 -0.35335344 0.6493736 0.042548496 -0.5738228 -0.36732206 -1.2449863 0.1192243 -0.85781217 -0.59636855 -0.27650955 0.8061826 -0.28549734 -0.7258579 -0.25508907 0.48944932 0.5537269 0.23314343 -0.43351707 -0.1303976 0.10182101 -0.5911363 0.4844407 0.15415142 -0.122083336 -0.6354485 0.19030873 0.6362065 0.103593804 -0.22588226 -0.06585326 -0.741675 0.61706316 0.20584293 0.67470354 -0.70758116 0.8763242 -0.521793 0.36526948 0.8125823 -0.4102419 0.57848233 0.3854795 0.06687919 0.09003577 -0.5809002 -0.28530112 -0.094277024 -0.416122 -0.43985844 0.73291487 -0.118550286 0.09080223 0.17136979 0.71583384 0.900336 0.27733034 0.55518466 0.24015021 -0.0032257163 0.29476702 1.3863982 0.6112943 0.55373496 -0.6642688 0.5069364 -0.11397156
씩 -0.44333708 0.80937463 0.1063485 -0.067320615 0.08488775 -0.981757 0.30827177 1.2823246 -0.4870731 -0.32133088 -0.26645908 -0.87271756 -0.048526302 0.36149094 0.26914704 -0.61365056 0.18514523 -0.9081712 -0.26464102 -0.8209373 0.3646183 0.31979376 0.4399102 -0.032259956 -0.2579412 0.10226839 -0.5991468 -0.3452683 -0.35613948 0.18197106 0.45827943 0.22515978 0.08020615 -0.52592623 -0.33730212 0.6173807 0.062851764 -0.56081176 -0.34974274 -1.2049031 0.09602263 -0.85570353 -0.58594644 -0.25487843 0.8012074 -0.26606756 -0.6886682 -0.23119502 0.4813374 0.53936625 0.24075207 -0.4228466 -0.118431374 0.08686224 -0.5721712 0.46694994 0.17950001 -0.1237676 -0.62673527 0.19503435 0.6069202 0.09139271 -0.2168819 -0.052309796 -0.7215668 0.5896073 0.18722902 0.6711486 -0.68513185 0.86975986 -0.50784355 0.34516704 0.8009253 -0.38658476 0.53755736 0.3687649 0.068581365 0.07415196 -0.578651 -0.297135 -0.10611275 -0.39571387 -0.43470564 0.71559376 -0.10602874 0.07867517 0.16474223 0.701498 0.87967926 0.27439952 0.5408748 0.21052924 0.0047125174 0.2975007 1.3522549 0.6043637 0.5367196 -0.6433989 0.4849648 -0.12343983
있고 -0.38229245 0.67791265 0.082193345 -0.04931492 0.092180006 -0.800116 0.23308451 1.0633054 -0.4182798 -0.27840832 -0.2276742 -0.730194 -0.054359514 0.317655 0.23249562 -0.50263035 0.15966831 -0.7471006 -0.23058635 -0.6902006 0.30248582 0.26184452 0.3640874 -0.03638041 -0.20069817 0.09701444 -0.4794739 -0.28744605 -0.3092509 0.16453667 0.3763796 0.18573485 0.05623138 -0.44818717 -0.2822077 0.5183316 0.039205037 -0.44864973 -0.27732098 -0.99155426 0.06513139 -0.71576905 -0.47676313 -0.2018742 0.6556203 -0.2231657 -0.56616724 -0.19879186 0.407712 0.44111493 0.19732654 -0.3429362 -0.08212627 0.09154697 -0.4865575 0.39421502 0.13993984 -0.08265154 -0.5032132 0.14305334 0.51661146 0.08078986 -0.19406636 -0.03959003 -0.5859285 0.4982778 0.14305845 0.55256176 -0.553908 0.7013897 -0.41481367 0.29789415 0.6598248 -0.33561727 0.43720362 0.3187639 0.048517194 0.06823874 -0.46079662 -0.23254652 -0.07186628 -0.34575012 -0.33861175 0.579919 -0.07865342 0.07941046 0.13354173 0.5677975 0.7266251 0.2351922 0.4453799 0.17197719 -0.014482624 0.23961231 1.0979965 0.4989353 0.45393276 -0.51937366 0.38886708 -0.0942094
의욕 -0.3993149 0.6976978 0.091722555 -0.051095903 0.094101146 -0.8356613 0.23442218 1.1074083 -0.44267595 -0.30606243 -0.24382515 -0.7490214 -0.056283478 0.31051195 0.22907165 -0.5088096 0.15687409 -0.76330054 -0.25170463 -0.71952957 0.30397335 0.26097262 0.36052305 -0.03636888 -0.20903507 0.09144057 -0.50109607 -0.31239033 -0.29903662 0.1744564 0.3997919 0.19305289 0.069590405 -0.46883333 -0.28148526 0.53956896 0.041586407 -0.45656982 -0.30187982 -1.0191951 0.053068224 -0.731561 -0.47935084 -0.21309227 0.6724015 -0.21837065 -0.5670722 -0.19164562 0.40189916 0.46373773 0.21432553 -0.35403144 -0.083987646 0.09395452 -0.4903623 0.38254535 0.15149884 -0.08226883 -0.5121381 0.16271102 0.52559155 0.09678345 -0.19157352 -0.045092057 -0.62337744 0.5037291 0.15083125 0.56691414 -0.5742551 0.74882007 -0.43337592 0.305708 0.70185095 -0.33956054 0.4690836 0.33148035 0.05233508 0.070041984 -0.47830537 -0.2397833 -0.09194275 -0.3482799 -0.36531258 0.57679623 -0.06628651 0.079466335 0.12695809 0.60827583 0.739119 0.24241813 0.45734638 0.20096411 -0.006285054 0.2660027 1.1441766 0.511861 0.4455231 -0.53738517 0.42092985 -0.104978345
